tree
version=v4
num_class=1
num_tree_per_iteration=1
label_index=0
max_feature_idx=10
objective=regression
feature_names=start_lon start_lat temperature max_temperature min_temperature precipitation lag_1_day_num_rides lag_7_days rolling_avg_7_days day_of_week month
feature_infos=[11.907258510589598:12.037782669067383] [57.67088699340821:57.732891082763672] [15:24.800000000000001] [17.100000000000001:30.600000000000001] [12.800000000000001:20.300000000000001] [0:11.44] [0:504] [0:504] [0:232.85714285714286] [0:6] none
tree_sizes=2590 2635 2636 2645 2642 2636 2634 2637 2646 2662 2656 2663 2651 2645 2637 2666 2667 2648 2685 2670 2666 2670 2659 2680 2675 2686 2681 2697 2696 2695 2715 2700 2723 2703 2720 2701 2698 2710 2715 2744 2681 2666 2728 2698 2711 2736 2729 2742 2754 2730 2718 2724 2728 2730 2727 2760 2721 2755 2704 2724 2749 2747 2734 2718 2724 2724 2722 2755 2735 2752 2713 2732 2774 2721 2720 2713 2734 2761 2737 2754 2716 2752 2735 2703 2719 2743 2743 2736 2759 2751 2715 2738 2738 2735 2748 2728 2749 2737 2698 2750

Tree=0
num_leaves=31
num_cat=0
split_feature=6 7 8 9 6 6 6 7 8 6 1 1 0 0 1 8 9 8 2 8 9 8 6 9 6 8 8 6 4 8
split_gain=2.61527e+06 542282 472674 141056 96441.1 94033.8 121818 92784.5 83624.6 66849.8 46042.8 118144 84770.4 163475 66852.8 33930 26192.6 23353.4 22385.8 21332.5 20670.1 17181.1 13669.9 9663.64 8725.61 8704.67 8323.89 7074.94 6190 6012.31
threshold=60.500000000000007 158.50000000000003 22.928571428571434 5.5000000000000009 99.500000000000014 14.500000000000002 1.0000000180025095e-35 218.00000000000003 48.928571428571438 143.50000000000003 57.693084843953457 57.709297404569753 11.987567075093589 11.948668980342086 57.699199795722969 7.7857142857142865 3.5000000000000004 75.571428571428584 24.350000000000005 134.00000000000003 3.5000000000000004 32.785714285714292 36.500000000000007 1.5000000000000002 5.5000000000000009 57.714285714285715 16.214285714285719 19.500000000000004 15.000000000000002 12.785714285714286
decision_type=2 2 2 2 2 2 2 2 2 2 2 2 2 2 2 2 2 2 2 2 2 2 2 2 2 2 2 2 2 2
left_child=2 3 5 4 16 6 10 -3 21 25 -1 12 13 -12 -15 24 -2 -18 22 28 -10 -4 26 -24 -8 -5 -7 -20 -6 -17
right_child=1 7 8 9 19 18 15 -9 20 -11 11 -13 -14 14 -16 29 17 -19 27 -21 -22 -23 23 -25 -26 -27 -28 -29 -30 -31
leaf_value=19.161546368793687 25.592100558337581 34.183442060230917 20.877385247977433 21.544732218885052 31.254255833132692 19.536312931692926 18.434383458617059 42.919732183462862 23.119732241604485 27.635357087648394 19.809248331107153 19.176045337847206 18.98319375420261 24.509732228762392 31.925377219544977 19.092410192624456 26.625982066041711 30.85836838063971 20.84949409629268 33.744732168930682 25.774277566916233 21.874661794139399 22.74857837875717 20.326954400337222 18.821770085807245 23.679214952606856 20.131534207334461 23.388210452113427 28.999904397313212 19.637274546562491
leaf_weight=113 95 31 441 56 21 582 1749 20 88 32 31 99 26 20 31 646 32 22 21 21 44 284 26 45 871 29 394 23 29 295
leaf_count=113 95 31 441 56 21 582 1749 20 88 32 31 99 26 20 31 646 32 22 21 21 44 284 26 45 871 29 394 23 29 295
internal_value=20.0497 27.9994 19.5205 26.545 28.037 19.1467 18.9161 37.6094 21.6895 23.7396 20.785 21.6713 23.9586 25.5362 29.0173 18.7482 26.5917 28.3503 19.9669 31.0701 24.0046 21.268 19.8741 21.2137 18.5632 22.273 19.7766 22.1766 29.9467 19.2632
internal_weight=0 388 5829 337 220 4972 3881 51 857 117 320 207 108 82 51 3561 149 54 1091 71 132 725 1047 71 2620 85 976 44 50 941
internal_count=6217 388 5829 337 220 4972 3881 51 857 117 320 207 108 82 51 3561 149 54 1091 71 132 725 1047 71 2620 85 976 44 50 941
is_linear=0
shrinkage=1


Tree=1
num_leaves=31
num_cat=0
split_feature=6 7 8 8 9 6 6 8 6 6 1 1 0 0 6 8 9 8 2 9 8 6 1 8 6 9 8 7 6 9
split_gain=2.11837e+06 441238 383234 122513 103380 82229.5 98417.9 63091.1 52108.1 39369.6 38077.1 119289 71666.8 129477 30957.9 28399.7 21017.9 19483.8 17729.9 16742.8 11280.4 10826.9 8846.26 8112.54 7840.21 7747.01 7050.78 5754.92 5730.7 5214.29
threshold=60.500000000000007 173.50000000000003 23.642857142857149 134.00000000000003 5.5000000000000009 14.500000000000002 1.0000000180025095e-35 48.928571428571438 172.50000000000003 98.500000000000014 57.695882283724281 57.707768235887805 11.980184671671497 11.952289104461672 143.50000000000003 8.3571428571428594 3.5000000000000004 64.285714285714292 24.350000000000005 3.5000000000000004 32.785714285714292 36.500000000000007 57.71028962342637 17.214285714285719 4.5000000000000009 1.5000000000000002 57.714285714285715 84.500000000000014 19.500000000000004 1.5000000000000002
decision_type=2 2 2 2 2 2 2 2 2 2 2 2 2 2 2 2 2 2 2 2 2 2 2 2 2 2 2 2 2 2
left_child=2 3 5 4 9 6 10 20 -3 16 -1 12 13 -12 26 24 27 -18 21 -9 -4 23 -13 29 -8 -23 -6 -2 -20 -7
right_child=1 8 7 -5 14 18 15 19 -10 -11 11 22 -14 -15 -16 -17 17 -19 28 -21 -22 25 -24 -25 -26 -27 -28 -29 -30 -31
leaf_value=-0.63164810105822145 4.4620019733002696 13.312204093933104 0.80936673451018959 11.696634281382842 1.3455267520887513 0.028232777476310728 -1.4800588039230178 2.7630268067121508 20.444343639555434 9.0057931102405888 1.2213746837207251 1.445819337964058 0.59690086267612597 11.778592338584938 5.9441564706655647 -0.66943161354798431 5.272184463169264 9.1407516988118491 0.71981248571759182 5.1521177790381696 1.6424633984519563 2.4289883283468394 -0.87244321312955631 0.14155828403118922 -1.1372409638393992 0.27772825214457003 3.2665613092225172 6.1729326520647323 3.0046571796355042 -0.61272205449156958
leaf_weight=133 66 20 380 34 56 175 1507 88 21 55 21 20 27 26 26 863 23 30 21 44 284 26 93 392 1197 47 29 28 23 462
leaf_count=133 66 20 380 34 56 175 1507 88 21 55 21 20 27 26 26 863 23 30 21 44 284 26 93 392 1197 47 29 28 23 462
internal_value=0 7.1547 -0.476244 5.99553 5.37624 -0.798705 -1.01818 1.56264 16.9653 6.72344 0.661808 1.58175 4.70282 7.06154 2.92458 -1.16889 5.8695 7.46194 -0.0542896 3.55939 1.16569 -0.132885 -0.462131 -0.216371 -1.3283 1.04393 2.00094 4.97164 1.91416 -0.436636
internal_weight=0 388 5829 347 313 5033 3887 796 41 202 320 187 74 47 111 3567 147 53 1146 132 664 1102 113 1029 2704 73 85 94 44 637
internal_count=6217 388 5829 347 313 5033 3887 796 41 202 320 187 74 47 111 3567 147 53 1146 132 664 1102 113 1029 2704 73 85 94 44 637
is_linear=0
shrinkage=0.1


Tree=2
num_leaves=31
num_cat=0
split_feature=6 8 8 7 9 6 6 8 7 1 1 0 0 0 6 8 6 2 2 9 8 7 6 8 9 8 6 4 6 4
split_gain=1.71588e+06 361368 310818 130240 62494.7 61922.1 81735 54750.7 39606.4 30984 78912.5 62108.2 128498 29464.7 25202.7 20255.1 19375.5 16832.6 16210.2 13561.6 11353.3 10160.4 9646.57 7417.53 6358.56 5750.58 5544.62 5349.85 4752.3 4710.74
threshold=60.500000000000007 179.07142857142858 22.928571428571434 108.50000000000001 5.5000000000000009 13.500000000000002 1.0000000180025095e-35 48.928571428571438 173.50000000000003 57.693084843953457 57.709972381591804 11.987567075093589 11.967435176129586 11.948031369377587 107.50000000000001 7.0714285714285721 143.50000000000003 24.350000000000005 22.850000000000005 3.5000000000000004 31.642857142857149 84.500000000000014 36.500000000000007 15.500000000000002 1.5000000000000002 56.857142857142868 7.5000000000000009 14.400000000000002 99.500000000000014 16.200000000000006
decision_type=2 2 2 2 2 2 2 2 2 2 2 2 2 2 2 2 2 2 2 2 2 2 2 2 2 2 2 2 2 2
left_child=2 3 5 4 14 6 9 20 28 -1 11 12 13 -11 18 26 25 22 21 -9 -4 29 23 27 -24 -6 -8 -7 -5 -2
right_child=1 -3 7 8 16 17 15 19 -10 10 -12 -13 -14 -15 -16 -17 -18 -19 -20 -21 -22 -23 24 -25 -26 -27 -28 -29 -30 -31
leaf_value=-0.73617566417803815 4.5588548099672472 15.982107543945313 0.6442689455846704 6.567091710226876 1.1776407843386687 0.033675100907585985 -1.2948136556242389 2.4867240906439045 12.451274923844771 -0.46004564944774878 -0.79734603649691538 -1.0573771198590598 9.7126038712263121 4.2070381641387939 8.5387881774902343 -0.68468662832932736 5.0724834276282271 1.703236648257898 7.1557761290977737 4.6369059996171433 1.4432014658999519 5.9462843894958501 2.1860894994093822 0.044602231018893101 0.22175395554966398 2.8864256666552635 -0.89906039856304631 -0.64436825472370962 8.2746592399401546 2.9019655644893647
leaf_weight=113 37 36 412 28 54 153 2048 88 22 31 95 27 30 24 25 957 23 49 29 44 313 32 26 460 45 31 428 486 39 32
leaf_count=113 37 36 412 28 54 153 2048 88 22 31 95 27 30 24 25 957 23 49 29 44 313 32 26 460 45 31 428 486 39 32
internal_value=0 6.43923 -0.428619 5.46326 4.34429 -0.731786 -0.932912 1.33024 8.76987 0.595627 1.32265 3.12086 4.44807 1.5765 5.63102 -1.07539 2.49758 -0.112566 5.07184 3.20345 0.989187 4.47348 -0.188612 -0.261596 0.941088 1.80084 -1.2264 -0.48202 7.56105 3.79044
internal_weight=0 388 5829 352 263 4972 3753 857 89 320 207 112 85 55 155 3433 108 1219 130 132 725 101 1170 1099 71 85 2476 639 67 69
internal_count=6217 388 5829 352 263 4972 3753 857 89 320 207 112 85 55 155 3433 108 1219 130 132 725 101 1170 1099 71 85 2476 639 67 69
is_linear=0
shrinkage=0.1


Tree=3
num_leaves=31
num_cat=0
split_feature=6 6 7 8 8 9 6 8 1 1 0 0 3 2 7 4 2 6 8 6 7 8 9 2 2 8 8 6 1 8
split_gain=1.39146e+06 280658 272872 86208.5 79002.6 64525.7 57090.7 39881.4 27244.8 83097.6 54950.9 94027.7 19967.5 21148.3 18680.5 18634.9 18440.9 16819.2 15795.7 12439.7 11731.7 11721.7 8000.26 11264.1 6930.95 6606.32 6597.28 5361.41 5174.38 4580.24
threshold=68.500000000000014 19.500000000000004 191.00000000000003 134.00000000000003 39.500000000000007 5.5000000000000009 1.0000000180025095e-35 11.642857142857144 57.695882283724281 57.707768235887805 11.980184671671497 11.958980148488827 27.200000000000006 19.050000000000004 72.500000000000014 17.400000000000002 24.350000000000005 143.50000000000003 26.642857142857149 6.5000000000000009 12.500000000000002 78.357142857142875 5.5000000000000009 17.850000000000005 24.350000000000005 81.928571428571445 68.357142857142875 34.500000000000007 57.71028962342637 20.357142857142858
decision_type=2 2 2 2 2 2 2 2 2 2 2 2 2 2 2 2 2 2 2 2 2 2 2 2 2 2 2 2 2 2
left_child=1 6 3 5 16 12 8 19 -1 10 11 -10 13 -2 20 -5 18 -7 22 -8 -6 -15 23 27 -21 -14 -22 -3 -11 -9
right_child=2 4 -4 15 14 17 7 29 9 28 -12 -13 25 21 -16 -17 -18 -19 -20 24 26 -23 -24 -25 -26 -27 -28 -29 -30 -31
leaf_value=-0.55804776842880965 7.1806541428421484 0.77283097876577966 15.172408073179184 11.646219017392113 4.3377281999588018 1.8382345754446257 -1.1510408715285056 -0.30456704796145473 2.1349967091171833 1.0675478816032411 0.32383789177294131 11.181484277248384 6.3245825354258223 2.1401018778483074 4.2552103720770944 7.4334428242274697 3.0347864759819849 4.8055443965471714 0.97675037282656452 -0.82024193007688773 1.5922374933712431 4.9104646955217639 -0.38083422368896813 0.18199307880607229 0.08398580829520802 8.4603510720389234 3.3246923713684087 2.4071652696413155 -0.7054643199648909 0.34444898120833167
leaf_weight=133 33 49 31 21 20 72 2052 617 27 20 27 20 30 21 45 21 28 26 366 1238 182 56 192 487 91 28 25 34 93 132
leaf_count=133 33 49 31 21 20 72 2052 617 27 20 27 20 30 21 45 21 28 26 366 1238 182 56 192 487 91 28 25 34 93 132
internal_value=0 -0.359277 6.22959 5.3295 0.860526 4.66471 -0.750711 -0.850412 0.536065 1.31423 3.91917 5.98457 5.85427 5.06263 2.39391 9.53983 0.49973 2.62548 0.436803 -0.996673 2.02493 4.15491 0.177458 0.365514 -0.758327 7.35564 1.80147 1.44232 -0.391657 -0.190188
internal_weight=0 5878 339 308 1428 266 4450 4130 320 187 74 47 168 110 272 42 1156 98 1128 3381 227 77 762 570 1329 58 207 83 113 749
internal_count=6217 5878 339 308 1428 266 4450 4130 320 187 74 47 168 110 272 42 1156 98 1128 3381 227 77 762 570 1329 58 207 83 113 749
is_linear=0
shrinkage=0.1


Tree=4
num_leaves=31
num_cat=0
split_feature=6 8 6 7 6 8 9 6 8 7 5 1 1 0 0 6 9 7 6 6 7 6 3 9 8 1 7 2 7 2
split_gain=1.13015e+06 268744 179729 101335 47616.8 43620.1 37355.1 29631.1 29516.3 24167.1 23723.9 25971.2 75241.7 41347.3 59336 13759 10381.1 10314.3 10038.6 8784.59 7822.57 6921.27 6423.21 5684.15 5503.91 5343.38 5210.59 4544.43 4539.71 4082.96
threshold=54.500000000000007 179.07142857142858 18.500000000000004 108.50000000000001 1.0000000180025095e-35 34.500000000000007 5.5000000000000009 76.500000000000014 9.7857142857142865 169.50000000000003 0.59500000000000008 57.695882283724281 57.707768235887805 11.980184671671497 11.958980148488827 143.50000000000003 5.5000000000000009 53.500000000000007 28.500000000000004 107.50000000000001 10.500000000000002 3.5000000000000004 28.750000000000004 2.5000000000000004 15.642857142857144 57.712940615699416 52.500000000000007 24.350000000000005 76.500000000000014 23.500000000000004
decision_type=2 2 2 2 2 2 2 2 2 2 2 2 2 2 2 2 2 2 2 2 2 2 2 2 2 2 2 2 2 2
left_child=2 3 4 6 10 16 7 22 21 -5 -1 -12 13 14 -13 26 18 20 -4 23 -7 -6 28 -9 -10 -14 -8 -23 -2 -20
right_child=1 -3 5 9 8 17 15 19 24 -11 11 12 25 -15 -16 -17 -18 -19 29 -21 -22 27 -24 -25 -26 -27 -28 -29 -30 -31
leaf_value=-1.6460621600680883 2.1575458965059053 13.154265515009563 0.23448176544617141 6.0406847115718962 -1.1205270943048056 3.2508751559257507 0.98362172871435938 4.0166866484810333 -0.45781405366476147 9.6402289610642669 -0.3241275228429259 2.6157674249099649 1.1269451293945314 0.74966087639331824 10.06333595275879 4.0846806028614875 -0.24942055573712729 2.7699461935144485 0.84321010616853787 7.1026505432128904 1.1848449833861225 -0.85780490947093357 4.5677512179721482 5.9601491928100589 0.064135319732193816 -0.57303692459220623 2.7977047419548038 -0.25529772623821539 3.7037559287888664 2.2044647748271626
leaf_weight=45 59 36 570 66 1221 20 76 34 666 26 114 23 25 22 20 23 253 66 269 25 219 1722 22 27 290 71 20 135 28 24
leaf_count=45 59 36 570 66 1221 20 76 34 666 26 114 23 25 22 20 23 253 66 269 25 219 1722 22 27 290 71 20 135 28 24
internal_value=0 4.87351 -0.373003 4.13925 -0.691706 0.603516 3.28409 4.13615 -0.784847 7.05795 0.482458 0.830761 1.64851 4.27572 6.07975 1.88787 0.313873 1.66333 0.47901 5.52393 1.35773 -0.935597 3.0412 4.87691 -0.299482 -0.130333 1.36156 -0.814004 2.65518 0.954712
internal_weight=0 442 5775 406 4354 1421 314 195 4034 92 320 275 161 65 43 119 1116 305 863 86 239 3078 109 61 956 96 96 1857 87 293
internal_count=6217 442 5775 406 4354 1421 314 195 4034 92 320 275 161 65 43 119 1116 305 863 86 239 3078 109 61 956 96 96 1857 87 293
is_linear=0
shrinkage=0.1


Tree=5
num_leaves=31
num_cat=0
split_feature=6 7 6 8 8 6 9 8 0 0 1 0 6 9 6 1 9 9 7 0 6 8 6 2 2 1 8 8 7 2
split_gain=916139 196692 184466 68241.5 47988 41101.5 40637.1 32875.6 20181.7 51181.9 55794.5 100428 17261.4 16574.5 16271.7 15311 12624.4 10783.4 9368.32 8979.57 8576.13 8165.34 8093.19 7542.34 5532.27 4943.43 4831.67 4223.34 4060.81 3735.91
threshold=68.500000000000014 218.00000000000003 28.500000000000004 107.92857142857143 14.500000000000002 1.0000000180025095e-35 5.5000000000000009 44.642857142857146 11.948031369377587 11.987567075093589 57.697017859930952 11.969647124161815 107.50000000000001 3.5000000000000004 7.5000000000000009 57.71028962342637 5.5000000000000009 3.5000000000000004 72.500000000000014 11.967829806464062 44.500000000000007 26.642857142857149 128.50000000000003 24.350000000000005 22.850000000000005 57.687065593495099 5.2142857142857153 69.428571428571445 22.500000000000004 15.600000000000001
decision_type=2 2 2 2 2 2 2 2 2 2 2 2 2 2 2 2 2 2 2 2 2 2 2 2 2 2 2 2 2 2
left_child=2 3 4 6 5 8 12 16 -1 10 25 15 17 22 26 -12 20 -2 27 -8 -4 -6 -5 29 -22 -10 -7 28 -9 -16
right_child=1 -3 7 13 21 14 19 18 9 -11 11 -13 -14 -15 23 -17 -18 -19 -20 -21 24 -23 -24 -25 -26 -27 -28 -29 -30 -31
leaf_value=-0.68626184008806668 3.0282578781499705 14.674794845581056 0.84591468620765176 4.6142476706669253 0.018441044788709598 -0.9934867069204899 1.0602616373098122 2.9045647279075957 -1.2297160685062409 -0.68212813735768507 3.3581161952018741 9.6945020457972646 6.3403177493956031 8.5075812021891277 0.022850130695217061 -0.55481489188969135 0.039824837196372948 5.0834926859372196 3.7155466631839147 3.1068645430935753 1.4716129935316502 0.84211675595570279 7.2290807819366449 0.38975541188002949 3.2875526189804081 0.77441370703745638 -0.65587833530426454 3.2192925149744207 1.4251820433574418 -0.59375375636308736
leaf_weight=107 59 20 359 29 760 1764 53 23 20 98 20 23 41 36 106 20 167 45 38 36 62 143 20 91 23 32 558 22 96 1346
leaf_count=107 59 20 359 29 760 1764 53 23 20 98 20 23 41 36 106 20 167 45 38 36 62 143 20 91 23 32 558 22 96 1346
internal_value=0 5.05481 -0.291525 4.45168 -0.512266 -0.654921 3.57016 1.13016 0.434212 0.997079 2.42806 4.4292 4.6026 6.87844 -0.745095 1.40165 0.780995 3.91754 2.322 1.8881 1.05977 0.148879 5.68153 -0.493391 1.96298 0.00359456 -0.912356 1.94643 1.71111 -0.54874
internal_weight=0 339 5878 319 5088 4185 234 790 320 213 115 63 145 85 3865 40 611 104 179 89 444 903 49 1543 85 52 2322 141 119 1452
internal_count=6217 339 5878 319 5088 4185 234 790 320 213 115 63 145 85 3865 40 611 104 179 89 444 903 49 1543 85 52 2322 141 119 1452
is_linear=0
shrinkage=0.1


Tree=6
num_leaves=31
num_cat=0
split_feature=6 8 8 7 6 6 9 2 8 5 1 1 0 7 6 3 2 6 0 9 8 1 8 2 7 0 1 8 9 6
split_gain=743000 186526 121332 65381 27925.5 31642.2 25104.2 25258.8 19732.2 17467.5 17244.5 55245.1 22487.4 15420 14863.8 13461.9 11462.5 9612.31 10499.9 7616.08 7384.05 6868.89 6202.59 5738.57 4326.46 3768.43 3993.96 3733.06 4179.51 3838.93
threshold=54.500000000000007 179.07142857142858 20.357142857142858 108.50000000000001 1.0000000180025095e-35 10.500000000000002 5.5000000000000009 23.500000000000004 45.500000000000007 0.59500000000000008 57.695882283724281 57.70436927453796 11.975975238359895 169.50000000000003 76.500000000000014 23.650000000000002 24.350000000000005 104.50000000000001 11.967646722669727 3.5000000000000004 27.357142857142858 57.709972381591804 6.6428571428571432 15.600000000000001 59.500000000000007 11.978073740611755 57.697753542945506 12.785714285714286 1.0000000180025095e-35 23.500000000000004
decision_type=2 2 2 2 2 2 2 2 2 2 2 2 2 2 2 2 2 2 2 2 2 2 2 2 2 2 2 2 2 2
left_child=2 3 4 6 9 22 7 14 20 -1 -11 12 -12 -5 -2 -16 23 -8 -19 -10 -4 -13 -6 -7 -17 26 -18 28 29 -25
right_child=1 -3 8 13 5 16 17 -9 19 10 11 21 -14 -15 15 24 25 18 -20 -21 -22 -23 -24 27 -26 -27 -28 -29 -30 -31
leaf_value=-1.4356288019816081 2.1251197445023919 10.85030451019605 0.24667297112934983 4.8716869729937926 -0.85059648079732142 0.45990000992718311 0.66100380745908582 6.54299577366222 1.3516045379068924 -0.25140630174101447 5.7631061315536503 1.3851134602228801 1.4622135746479037 7.7469448162959171 6.1466272354125984 1.9970964705199004 0.68089397106364025 1.0923289558717184 3.830926620960236 3.0394578200406754 0.82904810407133989 -0.38921527899801733 -0.5026339443695047 -0.21298291378703557 3.8408315794808523 0.015405606372015818 2.631219868432908 -0.13546578583782767 -0.56440798445752904 1.1797372608184815
leaf_weight=45 97 36 441 66 2242 101 63 22 85 114 31 30 20 26 21 20 21 28 28 39 430 80 664 95 35 21 21 610 660 25
leaf_count=45 97 36 441 66 2242 101 63 22 85 114 31 30 20 26 21 20 21 28 28 39 430 80 664 95 35 21 21 610 660 25
internal_value=0 3.95156 -0.30244 3.33985 -0.511567 -0.57631 2.65295 3.35145 0.70221 0.390791 0.68966 1.356 4.07648 5.68426 2.94559 3.99277 -0.212069 1.50836 2.46163 1.88246 0.534183 0.0946926 -0.77109 -0.267896 3.17038 1.10917 1.65606 -0.320779 -0.465704 0.0771671
internal_weight=0 442 5775 406 4780 4460 314 195 995 320 275 161 51 92 173 76 1554 119 56 124 871 110 2906 1491 55 63 42 1390 780 120
internal_count=6217 442 5775 406 4780 4460 314 195 995 320 275 161 51 92 173 76 1554 119 56 124 871 110 2906 1491 55 63 42 1390 780 120
is_linear=0
shrinkage=0.1


Tree=7
num_leaves=31
num_cat=0
split_feature=6 7 6 8 8 9 6 8 0 0 0 9 6 0 2 7 8 9 7 0 6 0 6 2 8 8 6 7 9 2
split_gain=604418 140851 122981 43504.3 36957.7 26545.8 25492.2 17074.6 15806.5 39422.9 51920.3 13182.2 12480.2 11121.8 10528.1 8853.87 8068.69 7672.13 5972.55 5885.76 4407.85 4299.5 4234.07 4218.07 3659.04 3119.63 3113.15 2899.61 2792.91 2654.04
threshold=68.500000000000014 218.00000000000003 18.500000000000004 107.92857142857143 39.500000000000007 5.5000000000000009 1.0000000180025095e-35 10.500000000000002 11.948031369377587 11.978261532117903 11.969442585829514 3.5000000000000004 107.50000000000001 11.957193421979325 24.350000000000005 72.500000000000014 26.642857142857149 3.5000000000000004 12.500000000000002 11.967829806464062 110.50000000000001 11.989797688343311 3.5000000000000004 15.600000000000001 68.357142857142875 75.571428571428584 30.500000000000004 49.500000000000007 1.5000000000000002 24.350000000000005
decision_type=2 2 2 2 2 2 2 2 2 2 2 2 2 2 2 2 2 2 2 2 2 2 2 2 2 2 2 2 2 2
left_child=2 3 6 5 14 12 8 22 -1 10 13 20 17 -10 16 18 23 28 -6 -7 -5 -11 -8 26 -20 -19 -4 -18 -2 -24
right_child=1 -3 4 11 15 19 7 -9 9 21 -12 -13 -14 -15 -16 -17 27 25 24 -21 -22 -23 29 -25 -26 -27 -28 -29 -30 -31
leaf_value=-0.63989908497119075 3.168497344507621 12.246419153213502 0.32564139477908616 3.323477612733841 2.9880584096908573 0.86180857921124643 -0.82748696399412491 -0.17558241865975052 2.5263862436016402 0.7144709649682045 6.0080108373292855 6.9858786106109623 5.2035683342596384 -0.2096380964303628 2.0162359026500156 2.8723857596185471 0.55754476522228547 3.3481027166048687 1.0237769819918225 2.5187494986587105 5.2532105577403101 -0.66411733518597549 -0.62206814016243972 0.027282266679361369 2.3135682868957521 5.0170500573657808 1.8523051045157695 1.5266296129016315 1.7826655591979172 -0.16263107175076452
leaf_weight=107 26 20 34 20 20 53 1223 844 24 30 28 36 41 39 35 45 336 24 183 36 29 92 1832 790 25 21 22 34 33 135
leaf_count=107 26 20 34 20 20 53 1223 844 24 30 28 36 41 39 35 45 336 24 183 36 29 92 1832 790 25 21 22 34 33 135
internal_value=0 4.10576 -0.23679 3.59537 0.536347 2.89153 -0.507406 -0.575556 0.351712 0.849845 2.42507 5.53299 3.72598 0.832657 0.306302 1.59051 0.257085 3.14348 1.33751 1.53203 4.46556 -0.32512 -0.681379 0.0867323 1.1788 4.12694 0.925402 0.646596 2.39337 -0.590536
internal_weight=0 339 5878 319 1524 234 4354 4034 320 213 91 85 145 63 1251 273 1216 104 228 89 49 122 3190 846 208 45 56 370 59 1967
internal_count=6217 339 5878 319 1524 234 4354 4034 320 213 91 85 145 63 1251 273 1216 104 228 89 49 122 3190 846 208 45 56 370 59 1967
is_linear=0
shrinkage=0.1


Tree=8
num_leaves=31
num_cat=0
split_feature=6 7 6 9 6 8 6 7 3 6 5 1 1 1 9 2 6 9 7 0 0 6 9 8 4 2 8 8 4 6
split_gain=489578 114656 100634 34453.4 30256.3 27066.7 21708.5 19178.4 15028.7 14729.1 13391.5 14273.7 42418.2 18930.4 10280 10282.5 9328.93 7290.18 6424.76 5410.51 19648.7 5386.32 5188.33 5905.17 5143.2 4563.11 3654.81 3613.49 3499.38 3307.27
threshold=68.500000000000014 202.50000000000003 28.500000000000004 5.5000000000000009 145.00000000000003 15.500000000000002 1.0000000180025095e-35 54.500000000000007 28.750000000000004 202.50000000000003 0.59500000000000008 57.695882283724281 57.70436927453796 57.700101808359932 5.5000000000000009 23.500000000000004 8.5000000000000018 3.5000000000000004 57.500000000000007 11.966454960051038 11.99247451061788 40.500000000000007 1.5000000000000002 81.928571428571445 18.250000000000004 24.350000000000005 26.642857142857149 5.2142857142857153 16.850000000000005 44.500000000000007
decision_type=2 2 2 2 2 2 2 2 2 2 2 2 2 2 2 2 2 2 2 2 2 2 2 2 2 2 2 2 2 2
left_child=2 3 5 4 8 6 10 14 17 18 -1 -12 13 -13 15 28 27 22 -5 -14 -21 -17 24 -24 -2 -18 -7 -8 29 -4
right_child=1 -3 7 9 -6 26 16 -9 -10 -11 11 12 19 -15 -16 21 25 -19 -20 20 -22 -23 23 -25 -26 -27 -28 -29 -30 -31
leaf_value=-1.2826504103342693 4.4163199577331538 10.212860073089601 0.76167473211174919 0.64160915724933154 7.4352499094876379 0.058111721557838614 -0.7297732761918172 2.0817919650924543 5.5611558818817137 4.1663455057144168 -0.27794779711648038 1.9563684709866842 -0.77971776087175726 5.8710294485801739 -0.024173194101292941 1.0810503493184629 -0.37996008226825662 4.1555259958226634 2.5902611960535467 3.2685998296737675 -0.4858421896462855 3.1463747543948042 0.66990618904431665 2.7910324445792609 2.4258010272626525 0.40168207501992587 0.61597364518817488 -0.46197131709316103 0.41491031783382193 1.6033503594027172
leaf_weight=45 25 25 189 64 22 657 1825 107 30 20 114 30 44 21 173 23 1368 47 23 20 46 28 21 35 27 79 143 696 208 62
leaf_count=45 25 25 189 64 22 657 1825 107 30 20 114 30 44 21 173 23 1368 47 23 20 46 28 21 35 27 79 143 696 208 62
internal_value=0 3.69518 -0.213111 3.17626 3.92937 -0.376153 -0.475776 0.83696 3.51245 1.71931 0.316541 0.578227 1.18446 3.56829 0.641942 0.867899 -0.539673 3.11593 1.15677 0.0792334 0.651868 2.21495 2.66351 1.99561 3.38278 -0.337286 0.15783 -0.655838 0.718226 0.969579
internal_weight=0 339 5878 314 207 5088 4288 790 185 107 320 275 161 51 683 510 3968 155 87 110 66 51 108 56 52 1447 800 2521 459 251
internal_count=6217 339 5878 314 207 5088 4288 790 185 107 320 275 161 51 683 510 3968 155 87 110 66 51 108 56 52 1447 800 2521 459 251
is_linear=0
shrinkage=0.1


Tree=9
num_leaves=31
num_cat=0
split_feature=6 8 8 8 6 6 7 9 6 7 0 0 0 3 1 1 6 7 7 6 9 0 8 7 2 2 9 8 9 8
split_gain=397233 111949 67093.1 34387.3 15379.1 15599.7 12379.5 12244.3 12155.9 11945.5 11203.7 27002.5 61790.9 7273.25 6926.08 6921.05 6813.75 5643.6 5538.18 4262.9 4212.21 3667.55 3605.56 3351.42 2840.02 3175.38 2773.49 2737.82 3339.35 2658.2
threshold=54.500000000000007 179.07142857142858 19.357142857142858 81.928571428571445 1.0000000180025095e-35 10.500000000000002 169.50000000000003 5.5000000000000009 98.500000000000014 46.500000000000007 11.945289664798315 11.975427636820354 11.968976817411535 28.750000000000004 57.706772148609168 57.693367363059011 34.500000000000007 1.5000000000000002 84.500000000000014 125.50000000000001 5.5000000000000009 11.989797688343311 6.2142857142857153 23.500000000000004 24.350000000000005 17.850000000000005 4.5000000000000009 59.071428571428577 3.5000000000000004 12.500000000000002
decision_type=2 2 2 2 2 2 2 2 2 2 2 2 2 2 2 2 2 2 2 2 2 2 2 2 2 2 2 2 2 2
left_child=2 3 4 7 10 22 13 8 18 17 -1 12 14 -5 15 -12 20 -4 -2 -9 24 -13 -6 -19 25 -7 -18 28 -11 -27
right_child=1 -3 9 6 5 16 -8 19 -10 27 11 21 -14 -15 -16 -17 26 23 -20 -21 -22 -23 -24 -25 -26 29 -28 -29 -30 -31
leaf_value=-0.6189573583387149 1.4684383432275243 8.2338664914170909 1.3911532233743107 2.8618968718327009 -0.63321751588382336 0.24906474653821273 5.6942468762397773 0.51807206280529505 4.0349738617585373 0.36219714608262565 0.11101580495419711 0.55982763507427313 6.8998896837234502 4.8270001411437988 -0.68347929074214064 2.5385498267908893 1.2147415462881328 0.1055589295945675 3.0877351654900447 2.1503440165519714 -0.5510404153267543 -0.59734275703591744 -0.37733770410249234 0.49272495801255395 0.56541840186608694 -0.4114835651038905 -0.037593517292823113 2.3825722673664926 1.5646782704525526 -0.065645047636316706
leaf_weight=96 97 36 51 104 2161 157 24 80 31 34 23 39 20 23 26 24 48 424 27 20 300 92 739 473 56 445 28 23 72 444
leaf_count=96 97 36 51 104 2161 157 24 80 31 34 23 39 20 23 26 24 48 424 27 20 300 92 739 473 56 445 28 23 72 444
internal_value=0 2.88933 -0.22114 2.41543 -0.384338 -0.433253 3.61139 1.70723 2.26382 0.490748 0.284887 0.672248 1.97533 3.21778 0.626138 1.35061 -0.168841 0.367895 1.82103 0.844526 -0.218832 -0.252842 -0.568012 0.309717 -0.128394 -0.165539 0.753355 1.39357 1.17898 -0.238759
internal_weight=0 442 5775 406 4698 4378 151 255 155 1077 320 224 93 127 73 47 1478 948 124 100 1402 131 2900 897 1102 1046 76 129 106 889
internal_count=6217 442 5775 406 4698 4378 151 255 155 1077 320 224 93 127 73 47 1478 948 124 100 1402 131 2900 897 1102 1046 76 129 106 889
is_linear=0
shrinkage=0.1


Tree=10
num_leaves=31
num_cat=0
split_feature=6 7 8 8 6 3 6 9 6 5 1 1 0 7 8 7 0 0 6 2 2 9 9 0 0 8 6 8 9 9
split_gain=322363 96083.6 49671 40229.2 12584.6 11975.2 11974.6 11445.3 10504 10102.5 11557.9 37704.1 18613.2 10085.8 7966.34 5193.57 3952.6 12744.7 3902 3839.44 3575.02 3449.53 4201.06 3131.18 4819.25 3085.74 3026.17 2932.13 2861.95 4950.31
threshold=50.500000000000007 218.00000000000003 19.357142857142858 81.928571428571445 1.0000000180025095e-35 28.750000000000004 10.500000000000002 5.5000000000000009 98.500000000000014 0.59500000000000008 57.697017859930952 57.70436927453796 11.969647124161815 132.50000000000003 34.214285714285722 87.500000000000014 11.967435176129586 11.996419736317229 125.50000000000001 24.350000000000005 15.600000000000001 3.5000000000000004 5.5000000000000009 11.959253036975863 11.941164705488417 59.071428571428577 128.50000000000003 6.6428571428571432 3.5000000000000004 5.5000000000000009
decision_type=2 2 2 2 2 2 2 2 2 2 2 2 2 2 2 2 2 2 2 2 2 2 2 2 2 2 2 2 2 2
left_child=2 3 4 7 9 13 27 8 15 -1 23 12 -12 -5 28 -2 -13 -18 -9 20 -8 25 -23 24 -11 -16 -15 -6 -4 -30
right_child=1 -3 14 5 6 -7 19 18 -10 10 11 16 -14 26 21 -17 17 -19 -20 -21 -22 22 -24 -25 -26 -27 -28 -29 29 -31
leaf_value=-1.1325903669993085 1.3523776670071213 9.0769914445422941 0.041279079284932879 2.4375033438681291 -0.56568486253788286 5.1877989710263552 0.37858914254915599 0.39265139491839723 3.6314764899592249 -0.36646113187767737 1.5406772981990469 -0.63933508694171914 5.7028902036803117 3.4786936203638712 0.42792002342235397 2.809993124033014 2.6802540922164919 -0.35364240460925633 1.9353095692396165 0.61560051900441537 -0.23883382315256224 1.6248666391469713 0.076296857270327478 -0.77448758565146347 1.4816832128025237 1.6046211757956863 5.1974496637284764 -0.32560272160549525 0.68828895214141594 -0.075856012560603203
leaf_weight=45 132 21 360 94 2242 31 101 91 31 43 22 45 21 21 156 30 20 45 20 61 1312 86 22 58 21 26 20 658 255 127
leaf_count=45 132 21 360 94 2242 31 101 91 31 43 22 45 21 21 156 30 20 45 20 61 1312 86 22 58 21 26 20 658 255 127
internal_value=0 2.45905 -0.210861 2.16335 -0.348962 3.41535 -0.393249 1.47969 1.94502 0.256398 0.483687 1.06259 3.57339 3.00835 0.41728 1.62231 0.0811009 0.579864 0.670608 -0.161167 -0.194701 0.861699 1.30942 -0.242318 0.239961 0.59602 4.31711 -0.511211 0.243585 0.434241
internal_weight=0 491 5726 470 4694 166 4374 304 193 320 275 153 43 135 1032 162 110 65 111 1474 1413 290 108 122 64 182 41 2900 742 382
internal_count=6217 491 5726 470 4694 166 4374 304 193 320 275 153 43 135 1032 162 110 65 111 1474 1413 290 108 122 64 182 41 2900 742 382
is_linear=0
shrinkage=0.1


Tree=11
num_leaves=31
num_cat=0
split_feature=6 7 6 9 6 8 8 6 9 1 0 0 8 6 9 0 1 9 2 4 6 6 8 7 7 6 1 6 9 5
split_gain=262427 64688.6 61110.1 24832.5 19656.4 15519.1 13146.4 12520.3 8859.91 8413.09 13617.2 54827.2 8281.36 7399.12 6648.17 6376.75 11876.1 4908.54 4478.63 4196.38 3525.94 3450.96 2983.77 2925.68 2916.45 2701.7 2561.79 2391.5 2114.34 1798.51
threshold=73.500000000000014 218.00000000000003 28.500000000000004 5.5000000000000009 154.00000000000003 12.785714285714286 52.928571428571438 1.0000000180025095e-35 3.5000000000000004 57.689210109221641 11.987567075093589 11.969647124161815 89.500000000000014 202.50000000000003 5.5000000000000009 11.948031369377587 57.706772148609168 3.5000000000000004 23.500000000000004 16.850000000000005 106.50000000000001 6.5000000000000009 23.642857142857149 57.500000000000007 1.0000000180025095e-35 40.500000000000007 57.700101808359932 41.500000000000007 4.5000000000000009 0.35000000000000003
decision_type=2 2 2 2 2 2 2 2 2 2 2 2 2 2 2 2 2 2 2 2 2 2 2 2 2 2 2 2 2 2
left_child=2 3 5 4 8 7 14 9 20 -1 11 15 -10 23 18 -11 -17 -8 19 27 -2 -9 -7 -5 28 -20 -19 -4 29 -23
right_child=1 -3 6 13 -6 22 17 21 12 10 -12 -13 -14 -15 -16 16 -18 26 25 -21 -22 24 -24 -25 -26 -27 -28 -29 -30 -31
leaf_value=-0.63568065087479286 1.7210013422472725 8.3709901523590098 0.58495568816975363 0.45665750776727992 6.0674065683569225 -0.03621697245289017 1.1340634212065279 -0.50688424778165919 2.7637064999176397 -0.52762449375097309 -0.51774351000785834 4.6997499362988906 5.1058250170487627 2.963554376959801 -0.053053889725630902 2.2006395355347665 -0.79844104457322673 3.1543325074340989 0.81797460060228 0.20763313607771164 2.9506389776865642 0.11663565973802047 0.35263825918445946 1.8047935279932892 -0.42285325342269808 2.3680395769036333 1.6266802041303543 1.1881562748537311 -0.52177998270900527 -0.25474091235608348
leaf_weight=83 58 20 173 60 21 861 89 2063 36 69 81 33 26 20 177 31 23 23 22 193 39 275 256 22 943 23 21 106 122 248
leaf_count=83 58 20 173 60 21 861 89 2063 36 69 81 33 26 20 177 31 23 23 22 193 39 275 256 22 943 23 21 106 122 248
internal_value=0 2.87533 -0.146805 2.48557 3.19196 -0.276391 0.650455 -0.369017 2.81219 0.230758 0.534195 1.08039 3.74589 1.23898 0.475915 0.109346 0.923253 1.56121 0.657012 0.566134 2.21539 -0.421586 0.0529029 0.818353 -0.310774 1.61023 2.42523 0.814129 -0.146912 -0.0594664
internal_weight=0 302 5915 282 180 5088 827 3971 159 320 237 156 62 102 694 123 54 133 517 472 97 3651 1117 82 1588 45 44 279 645 523
internal_count=6217 302 5915 282 180 5088 827 3971 159 320 237 156 62 102 694 123 54 133 517 472 97 3651 1117 82 1588 45 44 279 645 523
is_linear=0
shrinkage=0.1


Tree=12
num_leaves=31
num_cat=0
split_feature=6 8 6 9 8 8 6 9 0 0 9 6 9 4 0 6 0 0 3 2 6 4 6 9 9 8 2 4 8 3
split_gain=212570 54376.2 50323.6 17562.1 13995.4 10333.5 10109.4 7525.05 8498.47 55792.2 5478.12 5332.59 5123.45 3898.05 3825.44 3929.82 3759.8 8005.04 3259.32 3149.48 3330.82 3159.88 2979.28 2803.86 4796.09 3136.32 2568.58 2189.64 1931.2 1904.7
threshold=74.500000000000014 179.07142857142858 30.500000000000004 5.5000000000000009 12.785714285714286 58.357142857142868 1.0000000180025095e-35 4.5000000000000009 11.978261532117903 11.969647124161815 5.5000000000000009 120.50000000000001 3.5000000000000004 16.200000000000006 11.967646722669727 125.50000000000001 11.946868681907658 11.957193421979325 27.200000000000006 23.500000000000004 44.500000000000007 16.850000000000005 10.500000000000002 3.5000000000000004 5.5000000000000009 25.071428571428573 24.350000000000005 14.400000000000002 23.928571428571434 23.150000000000002
decision_type=2 2 2 2 2 2 2 2 2 2 2 2 2 2 2 2 2 2 2 2 2 2 2 2 2 2 2 2 2 2
left_child=2 3 4 11 6 10 7 -1 9 16 19 18 -7 -13 -5 -16 -9 -18 29 21 -21 -4 -8 -6 25 -25 27 -24 -23 -2
right_child=1 -3 5 14 23 12 22 8 -10 -11 -12 13 -14 -15 15 -17 17 -19 -20 20 -22 28 26 24 -26 -27 -28 -29 -30 -31
leaf_value=-1.1761006968361991 2.780206449465318 6.2539211809635162 0.81163117085319991 0.427206737279892 -0.084473140794034118 1.1747817147937087 -0.42834486891577028 -0.33962483532288501 -0.30105471776000092 5.2915652672449749 -0.0092400533812386654 4.4555292257895838 2.8363986822068696 2.598576073050499 0.72542793574658315 2.575753288467725 1.9432953550014647 -0.31115861071480649 3.0889514673678651 0.62331986029942832 2.4265160286426544 -0.42468680436864048 0.035941626970705236 0.27653060983114458 -0.23262595172926057 1.0025015635524352 0.44573561419140212 -0.35259945673068915 0.4207842866446348 1.6792619044130501
leaf_weight=35 22 36 258 50 641 72 2803 85 112 24 161 26 25 20 22 24 28 36 42 21 20 33 190 322 164 73 55 613 149 55
leaf_count=35 22 36 258 50 641 72 2803 85 112 24 161 26 25 20 22 24 28 36 42 21 20 33 190 322 164 73 55 613 149 55
internal_value=0 2.61062 -0.130972 2.1081 -0.241085 0.641014 -0.331322 0.207682 0.377621 0.816994 0.495663 2.73379 1.60303 3.64816 1.03269 1.69082 0.096258 0.675165 2.38034 0.664663 1.50293 0.586552 -0.378435 0.0582729 0.221959 0.410697 -0.215384 -0.260666 0.267485 1.99382
internal_weight=0 297 5920 261 5181 739 3981 320 285 173 642 165 97 46 96 46 149 64 119 481 41 440 3661 1200 559 395 858 803 182 77
internal_count=6217 297 5920 261 5181 739 3981 320 285 173 642 165 97 46 96 46 149 64 119 481 41 440 3661 1200 559 395 858 803 182 77
is_linear=0
shrinkage=0.1


Tree=13
num_leaves=31
num_cat=0
split_feature=6 8 8 8 6 6 1 1 1 9 2 9 2 0 0 7 9 8 2 8 0 0 0 6 9 2 3 6 1 3
split_gain=172472 56981.7 27210 16415.3 6233.52 8292.38 7513.23 19891.5 18443.2 5849.8 6848.38 6800.05 5730.84 4378.1 21858 3767.89 3713.5 3005.76 2617.73 2416.36 2304.19 2909.37 2317.8 2257.15 2222.09 3020.05 2951.39 2415.14 2061.35 1976.34
threshold=50.500000000000007 179.07142857142858 22.928571428571434 81.928571428571445 1.0000000180025095e-35 12.500000000000002 57.695882283724281 57.702280521392829 57.699079855283109 5.5000000000000009 17.850000000000005 2.5000000000000004 21.750000000000004 11.96397151833489 11.985858511924745 46.500000000000007 3.5000000000000004 7.0714285714285721 22.850000000000005 60.214285714285722 11.959253036975863 11.981889052824544 11.941164705488417 104.50000000000001 5.5000000000000009 17.850000000000005 27.200000000000006 22.500000000000004 57.715747724260616 26.200000000000006
decision_type=2 2 2 2 2 2 2 2 2 2 2 2 2 2 2 2 2 2 2 2 2 2 2 2 2 2 2 2 2 2
left_child=2 3 4 9 6 17 20 8 -8 10 -2 29 -5 28 -15 -4 -14 -6 19 -13 22 -22 -1 -11 25 27 -27 -7 -9 -12
right_child=1 -3 15 12 5 24 7 13 -10 23 11 18 16 14 -16 -17 -18 -19 -20 -21 21 -23 -24 -25 -26 26 -28 -29 -30 -31
leaf_value=-0.35648623775033395 2.8820333569138139 5.6285290486282777 0.30840464825621089 1.7111058733234668 -0.41201513371374071 0.094236132908951165 0.61691861391067515 -1.368267967303594 4.6910954308509831 0.16855933091615979 0.86596964487323058 0.77312363840284803 2.1791013342993604 3.2691325182006477 -0.44891544054262345 0.93605378972632547 3.5664018418206727 -0.193000632853874 2.3020768193175662 1.9265694731846452 -1.5405468630790713 -0.16979195028543473 0.9136992081627251 1.11892009130434 -0.30442425729203465 -0.20585295542314888 0.16127186735160648 0.92115455360735887 -0.15025907465905855 -0.3331198201647827
leaf_weight=51 27 36 655 73 2433 88 25 24 20 73 27 42 35 21 64 112 43 844 37 32 30 32 20 38 296 559 360 59 33 28
leaf_count=51 27 36 655 73 2433 88 25 24 20 73 27 42 35 21 64 112 43 844 37 32 30 32 20 38 296 559 360 59 33 28
internal_value=0 1.79868 -0.154235 1.49566 -0.239967 -0.269413 0.186914 0.595557 2.42766 1.07234 1.40501 1.16477 2.34791 0.0149593 0.469661 0.400056 2.9439 -0.355607 1.6153 1.27191 -0.387643 -0.83306 0.00131248 0.493908 -0.0620283 0.00527858 -0.0620391 0.426129 -0.663105 0.255524
internal_weight=0 491 5726 455 4959 4639 320 187 45 304 193 166 151 142 85 767 78 3277 111 74 133 62 71 111 1362 1066 919 147 57 55
internal_count=6217 491 5726 455 4959 4639 320 187 45 304 193 166 151 142 85 767 78 3277 111 74 133 62 71 111 1362 1066 919 147 57 55
is_linear=0
shrinkage=0.1


Tree=14
num_leaves=31
num_cat=0
split_feature=6 7 8 9 6 6 2 8 6 1 1 1 9 9 8 0 0 6 9 9 1 3 6 2 4 0 0 0 0 1
split_gain=141532 42689.5 33444.5 14937.1 10953.6 9236.87 6376.75 6337.22 6220.8 6085.72 16112.1 14939 5377.85 6612.07 4273.67 3824.41 21266.5 3657.88 3075.75 5043.16 2883.45 2711.89 2907.44 2550.67 2048.06 2043.69 1866.4 2393.08 1877.42 1690.75
threshold=74.500000000000014 218.00000000000003 27.357142857142858 5.5000000000000009 154.00000000000003 17.500000000000004 24.350000000000005 69.428571428571445 1.0000000180025095e-35 57.695882283724281 57.702280521392829 57.699079855283109 3.5000000000000004 4.5000000000000009 9.7857142857142865 11.974728107452393 11.958327180689034 202.50000000000003 3.5000000000000004 5.5000000000000009 57.709695194205466 26.400000000000002 108.50000000000001 15.600000000000001 14.400000000000002 11.97278169860113 11.959253036975863 11.978413472947421 11.941164705488417 57.717140722527084
decision_type=2 2 2 2 2 2 2 2 2 2 2 2 2 2 2 2 2 2 2 2 2 2 2 2 2 2 2 2 2 2
left_child=2 3 5 4 12 8 23 18 9 26 11 -11 21 -14 -10 16 29 24 -4 25 -17 22 -2 -7 -5 -20 28 -28 -1 -12
right_child=1 -3 7 17 -6 6 -8 -9 14 10 15 -13 13 -15 -16 20 -18 -19 19 -21 -22 -23 -24 -25 -26 -27 27 -29 -30 -31
leaf_value=-0.32083760686949192 1.4446280002593994 6.5919651211053143 0.23677239087209156 1.3273471326877675 4.511121015321641 0.65748061841262173 1.3523318665788362 1.5326726145187362 -0.34603168761742625 0.5552267189025879 -1.252630669162387 4.2219858577847482 4.1888563395901164 2.030499259904027 -0.095397706093106951 -1.5141829335689545 3.2951942099630838 2.0587506940588356 1.2312218343554919 0.060474504828453068 -0.10500751778764546 0.79117470928307243 2.8556429348562076 -0.010642848761003479 0.22895143967250298 0.60806971336665905 -1.4571055840562892 -0.2040835223879133 0.82232927262783062 -0.065635403564998085
leaf_weight=51 40 20 301 24 21 61 38 61 3058 25 21 20 22 40 875 20 20 20 118 90 53 29 23 903 58 95 27 35 20 28
leaf_count=51 40 20 301 24 21 61 38 61 3058 25 21 20 22 40 875 20 20 20 118 90 53 29 23 903 58 95 27 35 20 28
internal_value=0 2.13019 -0.106869 1.80804 2.36867 -0.191422 0.081721 0.561286 -0.255774 0.168223 0.536001 2.1849 2.07652 2.79637 -0.290272 0.0134633 0.547259 0.846182 0.463182 0.688097 -0.491083 1.5914 1.95976 0.0316347 0.550433 0.95329 -0.348879 -0.749754 0.00118123 -0.574348
internal_weight=0 297 5920 277 175 5255 1002 665 4253 320 187 45 154 62 3933 142 69 102 604 303 73 92 63 964 82 213 133 62 71 49
internal_count=6217 297 5920 277 175 5255 1002 665 4253 320 187 45 154 62 3933 142 69 102 604 303 73 92 63 964 82 213 133 62 71 49
is_linear=0
shrinkage=0.1


Tree=15
num_leaves=31
num_cat=0
split_feature=6 7 6 9 6 8 8 6 5 0 0 9 3 2 4 0 0 6 9 8 6 8 2 9 9 2 8 4 4 8
split_gain=114641 34578.5 27437 12099.1 8872.44 8067.92 6241.14 5374.54 5512.93 6249.55 52946.7 4583.11 4735.35 4576.55 3170.61 3102.05 10156 2962.88 2575.1 2799.45 2320.32 2262.05 2163.98 2064.17 3150.96 2006.69 1661.96 1658.93 1621.15 1761.63
threshold=74.500000000000014 218.00000000000003 30.500000000000004 5.5000000000000009 154.00000000000003 13.500000000000002 42.928571428571438 1.0000000180025095e-35 0.59500000000000008 11.975427636820354 11.967435176129586 2.5000000000000004 26.200000000000006 22.850000000000005 18.700000000000006 11.958980148488827 11.949981306728565 202.50000000000003 3.5000000000000004 58.357142857142868 2.5000000000000004 103.50000000000001 15.600000000000001 3.5000000000000004 5.5000000000000009 24.350000000000005 25.071428571428573 14.400000000000002 14.400000000000002 4.7857142857142865
decision_type=2 2 2 2 2 2 2 2 2 2 2 2 2 2 2 2 2 2 2 2 2 2 2 2 2 2 2 2 2 2
left_child=2 3 5 4 11 7 14 8 -1 10 15 12 -2 21 22 16 -10 27 -8 -20 -9 -13 -4 -7 26 28 -25 -5 -22 -30
right_child=1 -3 6 17 -6 23 18 20 9 -11 -12 13 -14 -15 -16 -17 -18 -19 19 -21 25 -23 -24 24 -26 -27 -28 -29 29 -31
leaf_value=-0.87466776423984105 1.9398835657731348 5.9327686251699925 1.1489491924643518 1.194612417680522 4.0600089527311782 -0.063717817456847958 0.62911636486762401 -0.41637463483441572 -0.24790718345552365 -0.24299863198529117 5.2794970011931248 1.4389063738286496 0.30822748521278642 3.588049480189448 1.3363719703974548 -1.0630248924960262 2.1413201472975993 1.8528756386041643 0.98345368171439462 2.2209762945175173 -0.088892400459747542 2.7653198063373567 0.17509376675044019 0.26190800559949518 -0.18196598728155267 0.090556821893921224 0.79611046026422549 0.20605629214952731 -0.40513010462802196 -0.22057116821760481
leaf_weight=45 46 20 24 24 21 588 132 892 93 115 22 36 29 23 27 23 22 20 68 25 490 20 463 288 145 181 73 58 829 1375
leaf_count=45 46 20 24 24 21 588 132 892 93 115 22 36 29 23 27 23 22 20 68 25 490 20 463 288 145 181 73 58 829 1375
internal_value=0 1.91717 -0.0961825 1.62724 2.1318 -0.177489 0.47384 -0.242051 0.1514 0.319303 0.723456 1.86887 1.30898 2.40041 0.281567 -0.00286882 0.209162 0.761563 0.913078 1.31612 -0.275474 1.91263 0.223087 0.0637061 0.21178 -0.231758 0.369932 0.49539 -0.253413 -0.28999
internal_weight=0 297 5920 277 175 5181 739 4087 320 275 160 154 75 79 514 138 115 102 225 93 3767 56 487 1094 506 2875 361 82 2694 2204
internal_count=6217 297 5920 277 175 5181 739 4087 320 275 160 154 75 79 514 138 115 102 225 93 3767 56 487 1094 506 2875 361 82 2694 2204
is_linear=0
shrinkage=0.1


Tree=16
num_leaves=31
num_cat=0
split_feature=6 6 8 8 4 8 9 2 4 9 6 1 1 1 0 0 6 0 8 9 2 3 1 8 0 0 6 9 9 9
split_gain=92948.1 38937.7 15345.5 13281.5 10725.2 10271.2 6085.9 6095.49 5653.56 4971.25 3771.03 4850.9 12756.6 11525.1 3423.41 13935.8 2952.19 2382.94 2334.62 2261.59 2236.6 2569.96 2224.95 2179.8 1825.23 2608.33 1653.66 1449.28 1440.01 2259.3
threshold=44.500000000000007 216.50000000000003 81.928571428571445 19.071428571428573 17.400000000000002 127.07142857142858 5.5000000000000009 17.850000000000005 18.700000000000006 3.5000000000000004 1.0000000180025095e-35 57.695882283724281 57.702280521392829 57.699079855283109 11.96397151833489 11.985858511924745 3.5000000000000004 11.964240603976782 53.785714285714292 5.5000000000000009 17.850000000000005 27.200000000000006 57.703814301123991 38.214285714285722 11.959253036975863 11.978413472947421 22.500000000000004 3.5000000000000004 3.5000000000000004 5.5000000000000009
decision_type=2 2 2 2 2 2 2 2 2 2 2 2 2 2 2 2 2 2 2 2 2 2 2 2 2 2 2 2 2 2
left_child=3 2 6 10 5 17 7 -2 9 -9 11 24 13 -13 -14 -16 -12 -4 -11 20 26 -22 -6 28 -1 -26 -18 -25 -5 -30
right_child=1 -3 4 23 22 -7 -8 8 -10 18 16 12 14 -15 15 -17 19 -19 -20 -21 21 -23 -24 27 25 -27 -28 -29 29 -31
leaf_value=0.020769460163485839 2.2238582058386371 5.1441500196854273 2.8149715253338221 0.013847930909747758 0.38040208828292399 4.2130174325062679 0.09917786991009947 0.096429921773196481 2.298657456853173 0.68602375746218136 -0.35028536770465624 0.50039718627929686 -0.59993228299314516 3.7210416960716248 2.6370447756279085 -0.33171655761543661 0.01640931380625139 1.5270621117423564 1.6053595947458392 -0.34449970220398701 -0.2518345379858537 -0.028691022003398223 1.4774695525566737 0.36388378702104096 -1.4603164054729323 -0.15215622084481376 0.62262943974643381 1.0521905825581663 0.43930886408565106 -0.055695234831884835
leaf_weight=71 33 24 20 410 38 26 122 99 22 67 1234 25 57 20 21 64 298 51 47 585 1314 850 36 106 27 35 53 43 282 137
leaf_count=71 33 24 20 410 38 26 122 99 22 67 1234 25 57 20 21 64 298 51 47 585 1314 850 36 106 27 35 53 43 282 137
internal_value=0 1.19973 1.03098 -0.124617 1.82083 2.51256 0.684665 0.951193 0.772479 0.614845 -0.195013 0.13626 0.464613 1.93179 -0.000338447 0.401742 -0.219472 1.88985 1.06505 -0.1674 -0.126206 -0.164186 0.914111 0.210377 -0.325409 -0.721839 0.107947 0.562523 0.147084 0.277458
internal_weight=0 585 561 5632 171 97 390 268 235 213 4654 320 187 45 142 85 4334 71 114 3100 2515 2164 74 978 133 62 351 149 829 419
internal_count=6217 585 561 5632 171 97 390 268 235 213 4654 320 187 45 142 85 4334 71 114 3100 2515 2164 74 978 133 62 351 149 829 419
is_linear=0
shrinkage=0.1


Tree=17
num_leaves=31
num_cat=0
split_feature=6 7 8 9 3 4 6 2 8 6 6 5 1 1 0 7 8 0 0 0 0 0 9 9 0 0 6 2 1 8
split_gain=76004.6 25025.4 18580.5 9244.43 6579.53 7254.93 4996.45 4306.79 3914.26 3872.02 3353.38 4253.97 5136.35 14853.9 13229.4 3047.42 2708.91 2533.47 2059.81 3744.28 1964.43 1962.72 1823.86 3144.17 1678.92 1647.2 1580.26 1445.48 1303.65 1180.82
threshold=74.500000000000014 218.00000000000003 27.357142857142858 5.5000000000000009 28.750000000000004 16.850000000000005 17.500000000000004 24.350000000000005 69.428571428571445 127.50000000000001 1.0000000180025095e-35 0.59500000000000008 57.697017859930952 57.70436927453796 11.969647124161815 132.50000000000003 9.5000000000000018 11.957193421979325 11.967435176129586 11.996419736317229 11.981889052824544 11.965009538063432 3.5000000000000004 5.5000000000000009 11.93926016489665 11.983707359858924 92.500000000000014 15.600000000000001 57.693626143314226 42.928571428571438
decision_type=2 2 2 2 2 2 2 2 2 2 2 2 2 2 2 2 2 2 2 2 2 2 2 2 2 2 2 2 2 2
left_child=2 3 6 4 5 9 10 27 22 -2 11 -1 17 14 -14 26 -12 24 -15 -20 -19 -5 -4 25 -13 28 -7 -8 -24 -30
right_child=1 -3 8 21 -6 15 7 -9 -10 -11 16 12 13 18 -16 -17 -18 20 19 -21 -22 -23 23 -25 -26 -27 -28 -29 29 -31
leaf_value=-0.77869271569781839 1.7118060079989612 4.9771873015165333 0.16825235959705573 0.073688562797463469 3.1034604277213416 0.78183529686044773 0.48952704638731287 1.1037676114392909 1.1831279810579098 3.3120752493540446 -0.26014733053009076 -0.13828354924917222 0.51827254775826903 -0.48007883687814079 4.0272723152523957 1.6875414941621862 -0.06475791010285846 -1.227808690071106 1.538512817621231 -0.10593247463305791 -0.092689917484919226 0.95525864011475026 0.36047458356867235 0.020231850081019933 0.96589596952710832 0.25385412219234488 -0.390943558216095 -0.013435946106701855 0.81163471734676618 1.4595197102562949
leaf_weight=45 54 20 301 46 30 27 61 38 61 21 3004 40 22 45 21 23 929 31 20 45 30 56 36 90 21 55 20 903 78 44
leaf_count=45 54 20 301 46 30 27 61 38 61 21 3004 40 22 45 21 23 929 31 20 45 30 56 36 90 21 55 20 903 78 44
internal_value=0 1.56103 -0.0783154 1.31438 1.75542 1.47652 -0.141337 0.0595526 0.419701 2.15988 -0.188667 0.122634 0.270124 0.656042 2.23197 0.744345 -0.213995 -0.213855 0.0399977 0.400051 -0.669554 0.557688 0.3426 0.515796 0.241844 0.72519 0.28278 0.0183906 0.889262 1.0453
internal_weight=0 297 5920 277 175 145 5255 1002 665 75 4253 320 275 153 43 70 3933 122 110 65 61 102 604 303 61 213 47 964 158 122
internal_count=6217 297 5920 277 175 145 5255 1002 665 75 4253 320 275 153 43 70 3933 122 110 65 61 102 604 303 61 213 47 964 158 122
is_linear=0
shrinkage=0.1


Tree=18
num_leaves=31
num_cat=0
split_feature=6 6 8 9 6 6 8 5 7 2 6 0 0 8 2 9 1 1 0 1 1 2 4 8 2 4 9 9 1 0
split_gain=61563.8 23436.4 15160.3 9207.18 7836.36 3777.88 3764.13 3456.99 4035.83 2480.95 2302.37 4300.2 38263.3 2883.6 2099.42 1765.12 1696.62 1655.48 4573.39 1567.46 9254.72 1547.28 1552.98 2192.9 1509.68 1424.23 1406.13 3354.61 1395.22 1285.95
threshold=74.500000000000014 216.50000000000003 23.642857142857149 5.5000000000000009 162.00000000000003 36.500000000000007 52.928571428571438 1.0000000180025095e-35 58.500000000000007 21.850000000000005 1.0000000180025095e-35 11.975427636820354 11.968976817411535 12.500000000000002 20.250000000000004 3.5000000000000004 57.700101808359932 57.701302513709443 11.948668980342086 57.698776599339084 57.70751333236695 24.350000000000005 14.400000000000002 4.2142857142857153 21.600000000000005 14.400000000000002 5.5000000000000009 3.5000000000000004 57.687065593495099 12.004921369199401
decision_type=2 2 2 2 2 2 2 2 2 2 2 2 2 2 2 2 2 2 2 2 2 2 2 2 2 2 2 2 2 2
left_child=2 3 5 4 7 10 26 8 -2 -10 11 12 17 21 -9 -8 -17 18 -1 28 -21 22 24 -24 -12 -5 27 -4 -13 -22
right_child=1 -3 6 25 -6 -7 15 14 9 -11 13 19 -14 -15 -16 16 -18 -19 -20 20 29 -23 23 -25 -26 -27 -28 -29 -30 -31
leaf_value=-0.24870694207681998 2.8584399777379907 4.4009360074996948 0.08652666656028235 0.94793903349588315 3.3109172669324014 0.46283630092167161 0.55110985678814661 1.2066295055051646 2.1550678863525392 0.95362734382802794 0.005502205380810042 -0.46201486587524415 4.5516392669081691 -0.014351210519983032 0.027376004365774306 1.9093322446812753 0.66612222194671633 -0.46980674083416285 1.2150170267621678 -2.4084971075966246 0.63909324813972823 0.030850068438547873 -0.35049747662738251 -0.17275992159794606 -0.35877571578517869 0.04267879532916205 -0.086071783476624614 0.56476691851457728 0.59787509971194808 -0.32159852962144408
leaf_weight=74 22 24 349 24 22 103 96 36 25 55 471 23 20 977 26 23 21 65 30 21 22 253 1325 1458 150 63 121 253 27 38
leaf_count=74 22 24 349 24 22 103 96 36 25 55 471 23 20 977 26 23 21 65 30 21 22 253 1325 1458 150 63 121 253 27 38
internal_value=0 1.40493 -0.0704838 1.14155 1.53872 -0.136591 0.316893 1.30099 1.65894 1.32908 -0.149054 0.110371 0.415564 -0.166969 0.712104 0.791498 1.31598 -0.0739127 0.173521 -0.329945 -0.601718 -0.207742 -0.225475 -0.257382 -0.0824876 0.292406 0.224992 0.287515 0.110326 0.0306551
internal_weight=0 297 5920 273 186 5057 863 164 102 80 4954 320 189 4634 62 140 44 169 104 131 81 3657 3404 2783 621 87 723 602 50 60
internal_count=6217 297 5920 273 186 5057 863 164 102 80 4954 320 189 4634 62 140 44 169 104 131 81 3657 3404 2783 621 87 723 602 50 60
is_linear=0
shrinkage=0.1


Tree=19
num_leaves=31
num_cat=0
split_feature=8 6 3 8 8 2 7 4 5 6 6 6 1 0 0 1 0 7 1 1 6 8 6 9 9 9 0 2 3 4
split_gain=50281.6 16420.8 15151.5 23409.3 3985.7 3044.33 2845.26 2983.21 2770.85 2731.91 2710.96 2215.97 3654.96 7059.1 43508.4 2950.18 6181.34 2084.62 1957.06 6478.72 1827.7 2077.1 1475.93 1417.9 1162.64 1396.79 1077.49 1067.04 1591.84 915.854
threshold=81.928571428571445 30.500000000000004 27.200000000000006 179.07142857142858 16.642857142857149 15.600000000000001 72.500000000000014 18.700000000000006 2.0850000000000004 106.50000000000001 44.500000000000007 1.0000000180025095e-35 57.689210109221641 11.978261532117903 11.968976817411535 57.701302513709443 11.948031369377587 86.500000000000014 57.709010135043762 57.699199795722969 119.50000000000001 36.214285714285722 2.5000000000000004 5.5000000000000009 3.5000000000000004 5.5000000000000009 11.97278169860113 17.850000000000005 27.200000000000006 18.250000000000004
decision_type=2 2 2 2 2 2 2 2 2 2 2 2 2 2 2 2 2 2 2 2 2 2 2 2 2 2 2 2 2 2
left_child=1 4 8 9 11 -3 7 20 17 -4 -9 12 -1 14 15 16 -14 -2 19 -15 21 -7 -13 27 -6 -26 -19 -24 -29 -23
right_child=2 5 3 -5 24 6 -8 10 -10 -11 -12 22 13 18 -16 -17 -18 26 -20 -21 -22 29 23 -25 25 -27 -28 28 -30 -31
leaf_value=-0.47175235317414066 0.49866909920688607 1.3148488663136959 2.5220880419015885 5.6042594194412239 -0.018163430053710346 0.024062002502763885 0.87526698215382115 0.27215746783074879 0.013517750253280003 1.1412499572689596 1.8789769467853366 -0.28765714092622824 -0.27764974867596343 0.4285703492164612 5.0703676414489749 -0.42282607234441322 1.8735689705068415 1.1231814375630131 0.036112612541075111 -2.0582407631657342 0.9335798996867557 0.46411136468064734 0.049518496705500112 -0.28406315975898372 0.34913880792079777 -0.10563283374168626 2.0659656036983836 -0.20448867712707922 -0.032958424182604577 -0.060635058543620973
leaf_weight=83 31 32 23 20 429 390 83 21 30 38 21 892 34 20 20 65 22 27 54 22 33 226 358 577 254 92 22 1361 898 39
leaf_count=83 31 32 23 20 429 390 83 21 30 38 21 892 34 20 20 65 22 27 54 22 33 226 358 577 254 92 22 1361 898 39
internal_value=0 -0.050631 1.59739 2.63532 -0.117297 0.358122 0.320465 0.257384 0.833104 1.66189 1.07557 -0.154082 0.0993338 0.299334 0.74966 0.0354936 0.567472 1.14045 -0.362081 -0.874045 0.207437 0.170853 -0.173929 -0.142167 0.0918335 0.228217 1.54647 -0.110882 -0.136302 0.386885
internal_weight=0 6026 191 81 5181 845 813 730 110 61 42 4406 320 237 141 121 56 80 96 42 688 655 4086 3194 775 346 49 2617 2259 265
internal_count=6217 6026 191 81 5181 845 813 730 110 61 42 4406 320 237 141 121 56 80 96 42 688 655 4086 3194 775 346 49 2617 2259 265
is_linear=0
shrinkage=0.1


Tree=20
num_leaves=31
num_cat=0
split_feature=8 6 7 7 2 8 6 0 7 2 0 6 1 1 0 1 1 0 0 8 9 1 0 2 4 9 9 2 0 3
split_gain=40728.1 13300.8 13252.6 5985.78 4611.04 3396.16 2561.42 4645.85 2535.83 2458.39 2169.63 1994.61 3584.46 9679.83 2632.84 11049.1 2608.74 2467.34 2638.94 1843.04 1838.61 1446.99 1342.53 1875.65 1612.79 1282.67 1748.72 1110.26 1091.95 906.469
threshold=81.928571428571445 30.500000000000004 218.00000000000003 45.500000000000007 23.000000000000004 12.785714285714286 102.00000000000001 11.968976817411535 99.500000000000014 21.600000000000005 11.971604005373443 1.0000000180025095e-35 57.697017859930952 57.702280521392829 11.974728107452393 57.709297404569753 57.710892813546323 11.957193421979325 11.978413472947421 113.0714285714286 5.5000000000000009 57.689510726928717 11.980811431191187 23.500000000000004 16.850000000000005 3.5000000000000004 5.5000000000000009 24.350000000000005 11.948882039164156 26.200000000000006
decision_type=2 2 2 2 2 2 2 2 2 2 2 2 2 2 2 2 2 2 2 2 2 2 2 2 2 2 2 2 2 2
left_child=1 5 3 -2 9 11 8 -8 20 10 -5 12 17 -14 15 -15 -16 21 -19 -11 22 -1 23 24 -3 -7 -27 -13 -17 -26
right_child=2 6 -4 4 -6 25 7 -9 -10 19 -12 27 13 14 16 28 -18 18 -20 -21 -22 -23 -24 -25 29 26 -28 -29 -30 -31
leaf_value=-0.26645659406979882 2.7699384778738025 0.54597175551805555 3.8076589266459147 1.2977030887685974 -0.48533196449279786 -0.054648993019444661 0.05959303911888239 1.7134426449026383 1.2417217088146852 1.141690946699575 0.094362669702499152 -0.18588596366893478 1.8270676964038128 2.2435572219931563 -1.2113023892045023 0.0057172706127166751 0.037061894827700677 -1.4222381669282915 -0.16760545012197997 2.1958371351162596 -0.029790580183422816 0.63425985786222649 0.067028481939743298 1.121029079769339 0.30183247871963043 0.2665764399740515 -0.12188305462733276 0.032034360645598628 -0.97242284388769251 -0.1747589160838435
leaf_weight=42 20 205 21 29 20 641 33 35 26 43 31 3410 37 23 26 25 47 30 38 27 192 31 145 35 112 395 164 251 21 62
leaf_count=42 20 205 21 29 20 641 33 35 26 43 31 3410 37 23 26 25 47 30 38 27 192 31 145 35 112 395 164 251 21 62
internal_value=0 -0.0455679 1.43765 1.14489 0.928215 -0.105567 0.32231 0.910839 0.270804 1.14568 0.675977 -0.150018 0.0894005 0.386444 0.0110698 0.453969 -0.407561 -0.287697 -0.72112 1.54829 0.23719 0.116039 0.32889 0.420605 0.355922 0.0418991 0.15261 -0.170945 -0.440825 0.132013
internal_weight=0 6026 191 170 150 5181 845 68 777 130 60 3981 320 179 142 69 73 141 68 70 751 73 559 414 379 1200 559 3661 46 174
internal_count=6217 6026 191 170 150 5181 845 68 777 130 60 3981 320 179 142 69 73 141 68 70 751 73 559 414 379 1200 559 3661 46 174
is_linear=0
shrinkage=0.1


Tree=21
num_leaves=31
num_cat=0
split_feature=6 6 8 9 7 4 8 2 6 2 8 6 9 1 0 0 1 0 0 8 5 4 4 7 9 9 2 2 8 0
split_gain=33316.8 14827.1 8563.94 5718.08 5853.08 3896.87 2711.82 3150.81 2238.43 2883.21 1962.8 1479.53 3109.93 3924.56 15134.3 54436 5043.06 1617.55 4999.6 1605.17 1054 1028.62 960.654 1068.67 932.359 1013.18 882.158 868.921 854.115 845.862
threshold=74.500000000000014 216.50000000000003 27.357142857142858 5.5000000000000009 25.500000000000004 17.850000000000005 113.0714285714286 21.750000000000004 17.500000000000004 24.350000000000005 69.428571428571445 1.0000000180025095e-35 4.5000000000000009 57.698070255266508 11.980184671671497 11.96397151833489 57.707898457845054 11.986876641120112 11.970705111821493 8.5000000000000018 3.855 14.400000000000002 14.400000000000002 3.5000000000000004 1.0000000180025095e-35 5.5000000000000009 21.750000000000004 20.250000000000004 17.642857142857149 11.945289664798315
decision_type=2 2 2 2 2 2 2 2 2 2 2 2 2 2 2 2 2 2 2 2 2 2 2 2 2 2 2 2 2 2
left_child=2 3 8 4 -2 6 -6 -8 11 22 20 12 -1 17 15 29 -16 18 -14 -13 24 -5 23 -10 -4 -26 -12 -21 -24 -15
right_child=1 -3 10 21 5 -7 7 -9 9 -11 26 19 13 14 16 -17 -18 -19 -20 27 -22 -23 28 -25 25 -27 -28 -29 -30 -31
leaf_value=-0.80912729361227587 2.2261233091354371 3.4165400053064028 -0.072482792991147918 0.71195729797085128 0.76396813951972609 -0.039662037588454581 0.89254280984401702 2.64633482825898 0.41540316404331296 0.89420462940868584 0.46483936654403807 -0.18287273790485034 -0.011334950234516557 -0.50081528425216681 -1.7568005544556813 5.8610877627418159 0.049332847130986367 0.50047190842720179 -1.6500922699769338 -0.20466372298533059 -0.27114304033800579 -0.057368395743625504 -0.15761796371270603 -0.14630100202560425 0.38265757958409335 0.011638948056432938 1.2263292107088812 0.0078054400916510031 0.050380833954320983 0.27070002079010014
leaf_weight=35 39 24 71 24 69 37 20 21 105 38 32 2836 83 27 22 21 52 26 24 249 39 63 342 50 404 90 29 848 467 30
leaf_count=35 39 24 71 24 69 37 20 21 105 38 32 2836 83 27 22 21 52 26 24 249 39 63 342 50 404 90 29 848 467 30
internal_value=0 1.03353 -0.0518511 0.824036 1.13704 0.848097 1.14671 1.79083 -0.094637 0.0398249 0.286254 -0.126316 0.0804604 0.189708 0.536826 1.50874 -0.487626 -0.206998 -0.378907 -0.14314 0.231656 0.154859 0.00614605 0.234208 0.266363 0.315063 0.826859 -0.0404214 -0.0375494 -0.0947546
internal_weight=0 297 5920 273 186 147 110 41 5255 1002 665 4253 320 285 152 78 74 133 107 3933 604 87 964 155 565 494 61 1097 809 57
internal_count=6217 297 5920 273 186 147 110 41 5255 1002 665 4253 320 285 152 78 74 133 107 3933 604 87 964 155 565 494 61 1097 809 57
is_linear=0
shrinkage=0.1


Tree=22
num_leaves=31
num_cat=0
split_feature=8 3 8 6 8 6 2 4 6 7 5 2 9 0 0 1 0 0 7 0 0 1 6 1 9 9 4 6 8 6
split_gain=27446.6 10689.4 16289.4 8639.95 2343.67 2094.7 1990.48 1972.38 2083.9 1867.62 1806.93 1640.75 2391.24 1777.12 5755.89 23546.7 31940.5 2125.1 1469.69 1437.83 4268.2 5981.5 2102.9 1353.68 1092.49 1493.29 1059.9 1547.95 1226.2 1261.2
threshold=81.928571428571445 27.200000000000006 179.07142857142858 30.500000000000004 12.500000000000002 106.50000000000001 15.600000000000001 18.700000000000006 44.500000000000007 60.500000000000007 2.0850000000000004 17.850000000000005 5.5000000000000009 11.989405308450973 11.969647124161815 57.697017859930952 11.980184671671497 11.977101767063143 80.500000000000014 11.958980148488827 11.949981306728565 57.70213240985391 1.0000000180025095e-35 57.70213240985391 3.5000000000000004 5.5000000000000009 14.400000000000002 60.500000000000007 31.642857142857149 62.500000000000007
decision_type=2 2 2 2 2 2 2 2 2 2 2 2 2 2 2 2 2 2 2 2 2 2 2 2 2 2 2 2 2 2
left_child=3 10 5 4 11 -3 -5 9 -9 26 18 12 13 14 19 17 -17 -16 -2 20 -1 -22 -21 -20 -6 -26 27 -8 -28 -30
right_child=1 2 -4 6 24 -7 7 8 -10 -11 -12 -13 -14 -15 15 16 -18 -19 23 22 21 -23 -24 -25 25 -27 28 -29 29 -31
leaf_value=-0.079892262779601181 0.18591082278225157 1.9931987547356151 4.5286017638444909 1.0326969176530838 -0.053942506947476446 0.78407731297376915 0.13150769581015295 0.19160205036063085 1.5679931358857591 0.55926683503720498 -0.12361431558926901 -0.16251462977975162 -0.24318481369431205 -0.14899263340638194 -0.86211323402822027 5.5889482170343401 0.2273773593902588 0.16990163989786833 1.7415259332954882 -1.0721226692199708 2.2670719146728517 0.019110151611525437 0.058600750565528874 0.69890936872724341 0.23986274265764673 -0.11041271726376023 -0.081458743052564203 1.0335423288245997 0.28894056184909767 -0.32650960942142104
leaf_weight=263 27 23 20 32 655 38 52 22 22 117 30 2884 325 229 32 20 25 53 20 29 20 29 38 33 405 174 263 30 269 38
leaf_count=263 27 23 20 32 655 38 52 22 22 117 30 2884 325 229 32 20 25 53 20 29 20 29 38 33 405 174 263 30 269 38
internal_value=0 1.18019 2.05198 -0.0374073 -0.0857646 1.23998 0.259089 0.22864 0.879798 0.191382 0.538234 -0.123371 -0.0171727 0.0823584 0.186444 0.76062 2.6103 -0.218622 0.786427 -0.0105033 0.0797563 0.936646 -0.430817 1.09235 0.0345221 0.134599 0.125366 0.46152 0.077007 0.212761
internal_weight=0 191 81 6026 5181 61 845 813 44 769 110 3947 1063 738 509 130 45 85 80 379 312 49 67 53 1234 579 652 82 570 307
internal_count=6217 191 81 6026 5181 61 845 813 44 769 110 3947 1063 738 509 130 45 85 80 379 312 49 67 53 1234 579 652 82 570 307
is_linear=0
shrinkage=0.1


Tree=23
num_leaves=31
num_cat=0
split_feature=6 7 8 9 9 8 2 1 0 6 8 2 9 2 8 2 9 0 0 0 1 1 0 0 1 6 0 1 1 1
split_gain=22379 10639.4 5721.55 4767.22 4077.91 9885.22 3004.47 2397.17 2499.82 1565.61 1559.11 1170.81 1122.09 1953.35 1998.14 1680.05 1491.39 1442.59 3734.49 13661.9 2741.4 5471.47 2079.71 1838.43 1567.97 1218.9 1090.14 959.893 900.995 2565
threshold=74.500000000000014 218.00000000000003 23.642857142857149 5.5000000000000009 3.5000000000000004 103.50000000000001 20.050000000000004 57.703690761990025 11.974728107452393 40.500000000000007 69.428571428571445 23.500000000000004 5.5000000000000009 17.850000000000005 5.2142857142857153 24.350000000000005 3.5000000000000004 11.941164705488417 11.975427636820354 11.971604005373443 57.706772148609168 57.699199795722969 11.957193421979325 11.958980148488827 57.691384696960455 1.5000000000000002 11.967114417239875 57.701302513709443 57.698957405838321 57.70513736500461
decision_type=2 2 2 2 2 2 2 2 2 2 2 2 2 2 2 2 2 2 2 2 2 2 2 2 2 2 2 2 2 2
left_child=2 3 9 4 6 -6 -2 8 -8 12 -4 26 13 17 15 -15 -16 -1 19 20 21 22 24 -22 -19 -24 -5 -11 -20 -30
right_child=1 -3 10 11 5 -7 7 -9 -10 27 -12 -13 -14 14 16 -17 -18 18 28 -21 23 -23 25 -25 -26 -27 -28 -29 29 -31
leaf_value=-0.16183776947741607 1.6478113353929738 3.0744931888580322 0.15841319641107671 -0.073027047183778546 0.81620803901127403 3.4093995900381184 -0.97254334517887653 0.86438767026577679 0.58960243016481406 0.068059950950098966 0.68284790618497826 -0.46793796953667582 -0.19854749223034637 -0.23306334336468437 -0.10911899840091213 0.045279546141967011 0.071598787677207815 0.064730721403812544 0.15115373830000561 2.7199304634084305 0.065202136663720017 1.6407351010268734 -0.90923812460331688 -0.97830978465080265 1.1454104012250901 0.077483048746662758 0.67689022833392742 0.75401613111881649 -0.89864719553691585 -0.014331856551693707
leaf_weight=191 22 20 802 36 49 21 21 42 20 51 61 24 804 1282 1073 261 795 29 123 24 52 31 21 25 25 31 42 34 41 164
leaf_count=191 22 20 802 36 49 21 21 42 20 51 61 24 804 1282 1073 261 795 29 123 24 52 31 21 25 25 31 42 34 41 164
internal_value=0 0.847058 -0.042496 0.686232 1.00295 1.59417 0.608807 0.333409 -0.210521 -0.083108 0.195482 0.142842 -0.0903831 -0.0695184 -0.101769 -0.185981 -0.0322075 0.0757995 0.155992 0.457539 0.203813 0.47214 0.130381 -0.2736 0.565045 -0.321001 0.330775 0.342442 -0.0628142 -0.191195
internal_weight=0 297 5920 277 175 70 105 83 41 5057 863 102 4972 4168 3411 1543 1868 757 566 238 214 137 106 77 54 52 78 85 328 205
internal_count=6217 297 5920 277 175 70 105 83 41 5057 863 102 4972 4168 3411 1543 1868 757 566 238 214 137 106 77 54 52 78 85 328 205
is_linear=0
shrinkage=0.1


Tree=24
num_leaves=31
num_cat=0
split_feature=6 9 6 2 3 6 7 7 4 5 2 8 2 0 6 9 6 9 2 1 1 1 0 0 6 8 2 4 8 7
split_gain=18831.2 21958.9 10350.2 3035.53 6591.17 2994.84 2620.81 2173.16 2842.3 2052.64 1756.91 1978.39 1815.02 1646.99 1406.14 1301.13 1121.68 987.288 1815.43 1541.54 2313.15 3740.89 16693.3 36449.7 2393.96 1368.09 1390.44 946.87 934.305 801.017
threshold=175.00000000000003 5.5000000000000009 39.500000000000007 23.500000000000004 30.500000000000004 59.500000000000007 18.500000000000004 40.500000000000007 14.400000000000002 0.94000000000000006 21.850000000000005 53.785714285714292 21.600000000000005 11.969647124161815 62.500000000000007 3.5000000000000004 63.500000000000007 5.5000000000000009 17.850000000000005 57.686815871132758 57.707768235887805 57.700101808359932 11.975427636820354 11.956306373371799 2.5000000000000004 4.7857142857142865 24.350000000000005 16.200000000000006 86.000000000000014 76.500000000000014
decision_type=2 2 2 2 2 2 2 2 2 2 2 2 2 2 2 2 2 2 2 2 2 2 2 2 2 2 2 2 2 2
left_child=2 -2 6 7 5 -5 17 8 16 10 11 -9 -13 29 27 -8 -4 18 19 -1 21 -21 23 -23 -24 26 -20 -10 -14 -11
right_child=1 -3 3 4 -6 -7 15 9 14 13 -12 12 28 -15 -16 -17 -18 -19 25 20 -22 22 24 -25 -26 -27 -28 -29 -30 -31
leaf_value=-0.22766449097011773 4.2978269731456589 -0.076059419910113016 0.24335900428818494 0.97489941194653518 -0.063689568880442027 2.6101248298372544 -0.022753096415686448 0.15855817835906458 0.288686677293085 -0.011756527942159901 0.33672887595399981 0.61343739122152341 1.1023406049311162 -0.45275440245675735 -0.58203516197654437 0.23869977134507986 1.0333607799373568 -0.18995987842590878 -0.21852576571677806 0.11767817843906783 -0.081412017819461197 -0.70423662692308431 -1.2321705798059703 5.2608183798335846 0.20029656993491307 -0.040983983054057156 0.036840548311861662 -0.24100140972591158 1.9854837992916938 0.79839888742336873
leaf_weight=140 22 24 41 24 37 21 370 29 68 23 126 40 25 39 53 392 32 792 1185 259 267 20 20 21 28 1743 260 67 23 26
leaf_count=140 22 24 41 24 37 21 370 29 68 23 126 40 25 39 53 392 32 792 1185 259 267 20 20 21 28 1743 260 67 23 26
internal_value=0 2.0158 -0.0150262 0.354827 0.925045 1.738 -0.0603748 0.275844 0.0600805 0.445978 0.595836 0.874875 1.11093 0.0321653 -0.145555 0.111748 0.589661 -0.0880743 -0.0676093 0.0718225 0.139998 0.309874 0.869184 2.35104 -0.396565 -0.10063 -0.172578 0.0258044 1.52551 0.418122
internal_weight=0 46 6171 674 82 45 5497 592 261 331 243 117 88 88 188 762 73 4735 3943 755 615 348 89 41 48 3188 1445 135 48 49
internal_count=6217 46 6171 674 82 45 5497 592 261 331 243 117 88 88 188 762 73 4735 3943 755 615 348 89 41 48 3188 1445 135 48 49
is_linear=0
shrinkage=0.1


Tree=25
num_leaves=31
num_cat=0
split_feature=6 8 7 6 2 1 4 6 8 7 4 5 2 1 1 8 2 7 9 9 0 6 2 2 1 1 0 0 0 0
split_gain=15516.6 9851.54 5481.99 2499.51 2833.31 2264.21 1171.04 3072.51 1274.17 1136.97 2055.7 1195.05 1666.34 1166.5 1186.49 1033.87 842.988 788.425 766.811 1357.65 997.93 1052.48 761.853 1619.66 2861.61 9179.38 1937.81 4108.79 1912.79 1923.18
threshold=210.50000000000003 48.928571428571438 11.500000000000002 17.500000000000004 24.350000000000005 57.699199795722969 14.400000000000002 63.500000000000007 17.642857142857149 81.500000000000014 18.250000000000004 0.94000000000000006 21.850000000000005 57.70278453826905 57.700308698825744 113.0714285714286 20.650000000000002 14.500000000000002 5.5000000000000009 3.5000000000000004 11.980503644859583 26.500000000000004 17.850000000000005 17.200000000000006 57.697017859930952 57.702280521392829 11.969647124161815 11.99247451061788 11.957193421979325 11.978413472947421
decision_type=2 2 2 2 2 2 2 2 2 2 2 2 2 2 2 2 2 2 2 2 2 2 2 2 2 2 2 2 2 2
left_child=1 3 -3 17 6 -6 7 -5 -8 13 11 12 15 14 16 -11 -4 22 19 -10 -21 -22 23 -1 28 -26 -27 -28 -25 -30
right_child=-2 2 9 4 5 -7 8 -9 18 10 -12 -13 -14 -15 -16 -17 -18 -19 -20 20 21 -23 -24 24 25 26 27 -29 29 -31
leaf_value=-0.098305516943630197 2.3920588082737395 1.8788890451192857 -0.27514392733573917 0.10634098302234303 0.14437283575534821 1.649103512763977 -0.14486451007351256 1.2224489817331579 -0.0059908915851180147 0.93759262718652436 -0.27280103826522828 0.23576866426529031 0.44736309340223673 0.61564298455531785 -0.53452013421941691 1.8258513164520265 0.35569870336270282 0.058377832470117935 -0.14352319059665683 0.39269715002172184 0.34398468852870995 -0.21569328104249308 -0.12123135679324758 0.21656636336787802 1.983723334223032 -0.40729034384902651 1.6206497168540956 -0.090666936559880035 -1.2471136994361878 -0.084333845882704761
leaf_weight=708 27 26 28 165 20 20 378 29 438 38 25 39 48 52 27 20 87 363 139 214 63 72 2924 61 32 49 20 47 25 33
leaf_count=708 27 26 28 165 20 20 378 29 438 38 25 39 48 52 27 20 87 363 139 214 63 72 2924 61 32 49 20 47 25 33
internal_value=0 -0.0104339 0.476072 -0.0431472 0.066133 0.896738 0.043954 0.273182 0.00985107 0.375871 0.56467 0.709062 0.883198 0.210429 0.0620402 1.24389 0.202102 -0.0825824 0.0730071 0.111251 0.258391 0.0454898 -0.095706 -0.0191559 0.190724 0.484281 0.0706416 0.420174 -0.174372 -0.585532
internal_weight=0 6190 390 5800 1538 40 1498 194 1304 364 170 145 106 194 142 58 115 4262 926 787 349 135 3899 975 267 148 116 67 119 58
internal_count=6217 6190 390 5800 1538 40 1498 194 1304 364 170 145 106 194 142 58 115 4262 926 787 349 135 3899 975 267 148 116 67 119 58
is_linear=0
shrinkage=0.1


Tree=26
num_leaves=31
num_cat=0
split_feature=6 7 8 7 6 6 2 1 7 5 2 6 6 0 4 6 8 1 6 0 0 0 0 1 1 7 0 9 9 0
split_gain=12657.7 11642.7 6901.79 5526.2 3374.51 2211.89 2265.98 1834.01 1240.73 1097.32 990.139 928.132 815 811.66 711.058 1587.71 999.666 703.909 947.266 2613.02 24371.5 3319.11 4984.13 1522.05 6630.34 871.547 787.738 622.544 1009.3 986.719
threshold=180.00000000000003 154.00000000000003 53.785714285714292 18.500000000000004 138.00000000000003 17.500000000000004 24.350000000000005 57.699199795722969 38.500000000000007 0.94000000000000006 21.850000000000005 97.500000000000014 110.50000000000001 11.968976817411535 14.400000000000002 63.500000000000007 17.642857142857149 57.685094515482589 1.0000000180025095e-35 11.975427636820354 11.967435176129586 11.958980148488827 11.948031369377587 57.698776599339084 57.707078783135671 14.500000000000002 12.004921369199401 5.5000000000000009 3.5000000000000004 11.980503644859583
decision_type=2 2 2 2 2 2 2 2 2 2 2 2 2 2 2 2 2 2 2 2 2 2 2 2 2 2 2 2 2 2
left_child=2 -2 5 -4 8 17 14 -8 -5 10 12 -12 -10 -11 15 -7 -16 -1 19 20 21 22 -19 -21 -25 -20 -26 28 -18 -30
right_child=1 -3 3 4 -6 6 7 -9 9 13 11 -13 -14 -15 16 -17 27 18 25 23 -22 -23 -24 24 26 -27 -28 -29 29 -31
leaf_value=-0.16177174771152919 0.1753478827683822 3.4743475973606111 2.0061023201261245 -0.19992161558734045 -0.64253362864255914 0.099547296058925164 0.12993554502725602 1.4841931347176434 1.1001083428703122 0.50125502959275858 0.16307157573324663 0.81324306750619746 0.37469043291750409 -0.16720693768823849 -0.12042506300162614 0.87916837084677923 0.006120422199238619 -0.26360613341842382 -0.087492722401886616 0.35261119142655406 3.5589115630303114 -1.1973389321047327 1.2769773880818063 -2.0514039915800093 0.50862346887588505 0.0870877124986109 -0.23285766545879213 -0.11847219831160308 0.35366330347363661 0.017764010470626611
leaf_weight=757 23 20 21 27 32 166 20 20 59 39 54 37 21 34 373 31 459 84 2920 31 21 23 28 20 23 317 38 146 233 140
leaf_count=757 23 20 21 27 32 166 20 20 59 39 54 37 21 34 373 31 459 84 2920 31 21 23 28 20 23 317 38 146 233 140
internal_value=0 1.70977 -0.011908 0.437358 0.328633 -0.0367904 0.0639458 0.807064 0.443309 0.514486 0.653045 0.427427 0.909686 0.189917 0.0447438 0.222229 0.0188633 -0.0743242 -0.0554375 0.125237 0.389813 -0.103158 0.12154 -0.24328 -0.471337 -0.070396 0.0467172 0.0719865 0.105408 0.227589
internal_weight=0 43 6174 324 303 5850 1588 40 271 244 171 91 80 73 1548 197 1351 4262 3505 268 156 135 112 112 81 3237 61 978 832 373
internal_count=6217 43 6174 324 303 5850 1588 40 271 244 171 91 80 73 1548 197 1351 4262 3505 268 156 135 112 112 81 3237 61 978 832 373
is_linear=0
shrinkage=0.1


Tree=27
num_leaves=31
num_cat=0
split_feature=6 8 7 6 2 1 4 6 7 8 6 1 7 6 2 9 0 1 8 2 2 0 0 0 0 1 1 6 0 9
split_gain=10701.7 6738.94 4270.16 1830 1829.2 1485.55 1315.24 2652.63 1276.58 1082.58 991.971 875.344 2084.47 1076.35 736.184 660.064 1088.34 753.251 636.649 922.791 991.739 2494.7 17178.5 2839.84 4143.14 1115.2 4638.55 900.69 768.819 700.259
threshold=221.50000000000003 53.785714285714292 13.500000000000002 17.500000000000004 24.350000000000005 57.699199795722969 16.500000000000004 123.50000000000001 50.500000000000007 106.64285714285715 111.50000000000001 57.702583357004023 138.00000000000003 113.50000000000001 20.250000000000004 5.5000000000000009 11.985012405797056 57.696674747743479 9.071428571428573 17.850000000000005 17.200000000000006 11.975427636820354 11.967435176129586 11.958980148488827 11.949981306728565 57.698957405838321 57.708712532968811 1.0000000180025095e-35 11.988626230846753 3.5000000000000004
decision_type=2 2 2 2 2 2 2 2 2 2 2 2 2 2 2 2 2 2 2 2 2 2 2 2 2 2 2 2 2 2
left_child=1 3 -3 18 10 -6 8 9 -4 14 15 12 -10 -13 -8 -5 17 -17 19 20 -1 22 23 24 -22 28 -27 -21 -23 -20
right_child=-2 2 6 4 5 -7 7 -9 11 -11 -12 13 -14 -15 -16 16 -18 -19 29 27 21 25 -24 -25 -26 26 -28 -29 -30 -31
leaf_value=-0.069529748334647909 2.2536255090009596 1.8438307237066329 0.02235810028182136 0.066072876818685067 0.11694198489189148 1.3357738244533541 -0.24378780645783993 -0.88296291611411348 0.58236828364279813 0.8671140842967564 0.64233237769868645 0.87443617333968493 1.7938299586623907 -0.04596079234723692 0.32273192961447311 -0.017098873531666853 0.20214315651227599 -0.36543045510459726 -0.074929101566105036 -0.69641320539845364 -0.10802769393063663 0.6115875439210372 3.0066278408874165 -1.0479313156821513 1.4245412349700928 -1.6487625555558638 0.11060011228348346 -0.11544966543673166 -0.23432475229104363 0.092459151650431212
leaf_weight=671 21 20 36 1188 20 20 32 22 49 27 27 24 20 27 81 118 92 131 539 27 89 22 22 22 22 22 47 2292 21 466
leaf_count=671 21 20 36 1188 20 20 32 22 49 27 27 24 20 27 81 118 92 131 539 27 89 22 22 22 22 22 47 2292 21 466
internal_value=0 -0.00763818 0.426529 -0.0326891 0.0586466 0.726358 0.33739 0.137821 0.544635 0.29823 0.0414818 0.701318 0.933517 0.387167 0.162302 0.0308716 -0.0917651 -0.200358 -0.0668918 -0.0883611 -0.00466755 0.158338 0.418173 -0.00999283 0.195725 -0.201254 -0.450356 -0.122214 0.198468 0.00268575
internal_weight=0 6196 338 5858 1596 40 318 162 156 140 1556 120 69 51 113 1529 341 249 4262 3257 938 267 155 133 111 112 69 2319 43 1005
internal_count=6217 6196 338 5858 1596 40 318 162 156 140 1556 120 69 51 113 1529 341 249 4262 3257 938 267 155 133 111 112 69 2319 43 1005
is_linear=0
shrinkage=0.1


Tree=28
num_leaves=31
num_cat=0
split_feature=8 6 7 7 2 6 8 6 6 2 9 9 2 8 2 1 1 1 0 0 6 2 0 0 0 0 2 0 1 4
split_gain=9498.71 5055.63 2138.43 1473.54 1460.41 1157.55 1590.22 1482.24 1133.8 935.56 762.454 752.651 891.317 1082.14 1101.04 1033.55 1671.27 3219.45 11655 27449.1 1510.51 730.984 858.291 700.987 4795.23 2455 3983.07 1882.13 678.614 648.336
threshold=188.21428571428575 39.500000000000007 169.50000000000003 24.500000000000004 15.600000000000001 165.00000000000003 53.785714285714292 104.50000000000001 70.500000000000014 20.250000000000004 3.5000000000000004 5.5000000000000009 17.850000000000005 3.6428571428571437 24.350000000000005 57.686253070831306 57.707768235887805 57.700101808359932 11.975427636820354 11.956306373371799 2.5000000000000004 22.850000000000005 11.968657225370409 11.957193421979325 11.947687779050886 11.977101767063143 17.200000000000006 11.99287590810231 57.698502956771115 18.250000000000004
decision_type=2 2 2 2 2 2 2 2 2 2 2 2 2 2 2 2 2 2 2 2 2 2 2 2 2 2 2 2 2 2
left_child=1 3 4 11 -3 6 7 8 21 -8 28 12 15 14 -14 -1 17 23 19 -19 -20 -6 -23 24 -17 26 -25 -27 -5 -11
right_child=-2 2 -4 10 5 -7 9 -9 -10 29 -12 -13 13 -15 -16 16 -18 18 20 -21 -22 22 -24 25 -26 27 -28 -29 -30 -31
leaf_value=-0.19547226097406323 1.9855776920914652 0.99002035286115564 1.031898613951423 0.19678495338355953 -0.0080794028299195422 -0.44976634750408789 0.059387892152254401 0.90040411233901985 -0.47134459714094801 0.5979661523467964 0.24301126263466957 -0.14304844034644684 -0.18703506130499492 -0.019129744482854733 0.045447944868355988 -0.0077010834408281119 -0.075743821911489387 -0.63701474362984301 -0.94524197280406952 4.5394227198192052 0.19261748854603089 0.64365123288575998 -0.067780519569558759 0.071018963407825778 1.6721715043485166 0.6665802910923958 -1.6280957969752228 -0.37322310573524903 -0.16946854082350971 0.18626294042549882
leaf_weight=131 24 23 33 88 210 28 65 20 42 153 262 824 941 2248 260 113 267 20 20 21 28 43 28 37 20 49 22 27 119 51
leaf_count=131 24 23 33 88 210 28 65 20 42 153 262 824 941 2248 260 113 267 20 20 21 28 43 28 37 20 49 22 27 119 51
internal_value=0 -0.0076948 0.246224 -0.0398447 0.207118 0.178983 0.207749 0.0649973 0.0132694 0.389771 0.129679 -0.0556574 -0.0385284 -0.0600717 -0.136706 0.0598858 0.113495 0.255026 0.776135 2.01433 -0.281491 0.0857028 0.363087 0.0819709 0.244911 -0.0785555 -0.562549 0.297176 -0.0137666 0.49504
internal_weight=0 6193 696 5497 663 640 612 343 323 269 469 5028 4204 3449 1201 755 624 357 89 41 48 281 71 268 133 135 59 76 207 204
internal_count=6217 6193 696 5497 663 640 612 343 323 269 469 5028 4204 3449 1201 755 624 357 89 41 48 281 71 268 133 135 59 76 207 204
is_linear=0
shrinkage=0.1


Tree=29
num_leaves=31
num_cat=0
split_feature=6 8 7 6 9 4 1 1 8 6 8 0 0 1 6 1 1 0 4 6 0 6 0 7 1 5 7 8 8 4
split_gain=8088.9 4381.4 3518.72 1423.01 1047.73 1025.72 1293.79 3103.75 1282.13 1172.9 1122.32 773.08 895.576 1126.39 2546.21 7306.72 8916.66 24644.8 1164.21 930.726 740.061 1369.91 736.879 654.346 925.435 625.885 520.398 520.14 467.593 531.359
threshold=221.50000000000003 38.214285714285722 10.500000000000002 80.500000000000014 5.5000000000000009 18.250000000000004 57.70278453826905 57.699317989927358 151.00000000000003 132.50000000000003 106.64285714285715 11.945289664798315 11.993108432204638 57.686253070831306 1.0000000180025095e-35 57.709972381591804 57.698070255266508 11.975975238359895 18.700000000000006 1.0000000180025095e-35 11.978073740611755 10.500000000000002 11.966771951088539 6.5000000000000009 57.699199795722969 3.855 33.500000000000007 7.7857142857142865 2.9285714285714293 17.400000000000002
decision_type=2 2 2 2 2 2 2 2 2 2 2 2 2 2 2 2 2 2 2 2 2 2 2 2 2 2 2 2 2 2
left_child=1 3 -3 11 -5 8 7 -7 9 10 25 28 13 19 15 16 22 -18 26 -13 21 -20 -15 24 -23 -4 -16 -14 -1 -30
right_child=-2 2 5 4 -6 6 -8 -9 -10 -11 -12 12 27 14 18 -17 17 -19 20 -21 -22 23 -24 -25 -26 -27 -28 -29 29 -31
leaf_value=-0.15355303623110339 1.9592978840782529 1.2979352797231367 0.27855354637345847 0.92109705209732062 -0.0085738606073639603 0.13710993074557998 0.37868378903621286 -1.3176038262518972 1.0531117355823516 -0.32018583365849085 0.93254629445075998 -0.69993290626085725 -0.11680598728209582 0.41112134516239163 -0.015420570245662117 -0.8480077374974887 4.0425676546096803 -0.66702684521675115 0.046137968776747584 -0.083211970052644371 -0.0057593206564585369 0.47763211980462073 -0.40324431240558622 0.31535696125030521 1.4281062807355609 -0.22370452670794397 0.18807120685921097 0.0085000197518156819 0.013440547623031308 -0.13647884231361507
leaf_weight=738 21 31 306 27 22 44 39 22 20 35 25 26 974 20 1520 30 25 20 56 416 66 20 25 25 21 27 137 502 576 401
leaf_count=738 21 31 306 27 22 44 39 22 20 35 25 26 974 20 1520 30 25 20 56 416 66 20 25 25 21 27 137 502 576 401
internal_value=0 -0.00664062 0.263055 -0.0328603 0.503694 0.201122 -0.0779598 -0.347795 0.272074 0.232327 0.286344 -0.0375568 -0.0128599 0.0247475 0.0571917 0.50354 0.954055 1.94941 0.0281609 -0.11949 0.263992 0.409922 -0.041304 0.718588 0.96446 0.23783 0.00140404 -0.0741884 -0.0934743 -0.0480924
internal_weight=0 6196 549 5647 49 518 105 66 413 393 358 5598 3883 2407 1965 120 90 45 1845 442 188 122 45 66 41 333 1657 1476 1715 977
internal_count=6217 6196 549 5647 49 518 105 66 413 393 358 5598 3883 2407 1965 120 90 45 1845 442 188 122 45 66 41 333 1657 1476 1715 977
is_linear=0
shrinkage=0.1


Tree=30
num_leaves=31
num_cat=0
split_feature=7 6 7 8 6 7 8 8 2 0 4 3 8 7 6 8 2 9 2 0 0 0 6 0 1 6 3 7 1 1
split_gain=7362.01 3237.43 2255.89 4474.08 3959.63 2820.96 1412.99 1211.25 844.665 898.525 1035.74 793.039 950.466 1141.47 722.217 807.657 615.235 575.992 768.445 765.307 8890.8 2094.16 1963.8 1611.49 4677.22 661.505 654.267 549.532 497.326 1538.91
threshold=218.00000000000003 42.500000000000007 5.5000000000000009 179.07142857142858 111.50000000000001 81.500000000000014 113.0714285714286 19.357142857142858 23.500000000000004 11.978261532117903 14.650000000000002 28.600000000000005 78.357142857142875 116.50000000000001 116.50000000000001 34.500000000000007 20.250000000000004 5.5000000000000009 17.850000000000005 11.969647124161815 11.975427636820354 11.958980148488827 1.0000000180025095e-35 11.948031369377587 57.70213240985391 1.0000000180025095e-35 27.200000000000006 15.500000000000002 57.698957405838321 57.70513736500461
decision_type=2 2 2 2 2 2 2 2 2 2 2 2 2 2 2 2 2 2 2 2 2 2 2 2 2 2 2 2 2 2
left_child=1 7 4 5 8 14 11 17 9 10 -3 12 -7 -14 15 -4 -9 18 19 21 -21 23 -23 -1 -25 -20 -27 -28 -22 -30
right_child=-2 2 3 -5 -6 6 -8 16 -10 -11 -12 -13 13 -15 -16 -17 -18 -19 25 20 28 22 -24 24 -26 26 27 -29 29 -31
leaf_value=-0.047562413773985499 1.8691921642848426 0.45049218416213987 -0.32997127905780199 -1.3245858850933256 1.4786455774307252 0.88131503520740395 1.0537007596041705 -0.059748751283322854 0.66139891554626662 0.61116982128309172 -0.44270494403065863 -0.15471745598316194 0.57243672473090035 -0.36013469880535487 -0.59435279347002512 0.11189228952203167 0.12469091995892501 -0.13104980386390946 -0.55974166102241729 1.6067235390998815 0.15031105812972156 -1.160977553499156 -0.11455328833866628 1.4096537373719678 -0.24552889085913959 -0.090429278643296529 -0.017829975707899012 0.21441360199792792 -0.65211044840696386 0.032440501553091132
leaf_weight=251 21 20 51 21 35 36 37 248 37 23 37 25 35 21 20 219 668 754 26 38 123 29 47 31 38 1880 1128 112 41 165
leaf_count=251 21 20 51 21 35 36 37 248 37 23 37 25 35 21 20 219 668 754 26 38 123 29 47 31 38 1880 1128 112 41 165
internal_value=0 -0.00633522 0.211025 0.101702 0.545467 0.169161 0.515057 -0.0303738 0.266311 0.0835833 -0.129302 0.344717 0.480433 0.222722 -0.0145213 0.0284292 0.0747553 -0.0510254 -0.0355896 0.0544411 0.158474 -0.0419731 -0.513847 0.0700969 0.498104 -0.0574247 -0.0532388 0.00314686 -0.00880117 -0.103805
internal_weight=0 6196 617 465 152 444 154 5579 117 80 57 117 92 56 290 270 916 4663 3909 763 367 396 76 320 69 3146 3120 1240 329 206
internal_count=6217 6196 617 465 152 444 154 5579 117 80 57 117 92 56 290 270 916 4663 3909 763 367 396 76 320 69 3146 3120 1240 329 206
is_linear=0
shrinkage=0.1


Tree=31
num_leaves=31
num_cat=0
split_feature=8 7 6 7 6 1 1 9 1 7 0 8 0 9 2 2 8 6 1 1 0 0 1 0 0 6 1 1 2 1
split_gain=6899.3 2502.4 1172.51 1105.39 1999.98 749.729 918.542 860.962 1038.58 925.695 729.974 624.828 575.657 533.427 742.618 994.292 1374.04 1185.78 894.892 884.517 1815.69 4080.11 15716.9 29656.5 3502.95 2876.03 1653.8 2057.22 2038.65 1462.32
threshold=188.21428571428575 41.500000000000007 111.50000000000001 169.50000000000003 150.00000000000003 57.703690761990025 57.708712532968811 3.5000000000000004 57.700759015764518 108.50000000000001 11.969442585829514 27.357142857142858 11.985012405797056 5.5000000000000009 17.850000000000005 23.500000000000004 2.9285714285714293 24.500000000000004 57.684540748596206 57.709972381591804 11.948031369377587 11.975427636820354 57.699199795722969 11.965009538063432 11.956306373371799 1.0000000180025095e-35 57.698302110036217 57.695882283724281 17.200000000000006 57.699199795722969
decision_type=2 2 2 2 2 2 2 2 2 2 2 2 2 2 2 2 2 2 2 2 2 2 2 2 2 2 2 2 2 2
left_child=1 2 11 4 5 7 10 8 -3 -9 -7 13 -8 14 18 16 -16 -17 -1 20 29 22 24 -24 -22 -26 27 -23 -28 -20
right_child=-2 3 -4 -5 -6 6 12 9 -10 -11 -12 -13 -14 -15 15 17 -18 -19 19 -21 21 26 23 -25 25 -27 28 -29 -30 -31
leaf_value=-0.21889570648116724 1.6922204573949178 0.073865230521687905 0.52179143413519247 0.77460520628726848 -0.80242156505584716 0.35423784288375276 -0.33968509823083881 0.16748081658725386 -0.66398253440856936 0.79019675647582988 0.95087887403127314 0.087070971287735346 0.36815288740175744 -0.10918947994557093 -0.18163382159981997 0.049684128141070302 -0.026312908281361444 0.70856172370499582 0.052690274307563428 -0.054877865935631834 0.97194839553399515 0.043710474870980731 0.10319123138984046 5.002948255482174 -1.4830814844369888 -0.020384348856239784 0.027934710412728981 1.2078205937147142 -1.0027422066245761 -0.73490320703592804
leaf_weight=98 24 93 39 33 20 46 20 135 24 29 37 433 27 875 753 470 2338 29 126 233 22 63 30 21 20 41 61 20 28 29
leaf_count=98 24 93 39 33 20 46 20 135 24 29 37 433 27 875 753 470 2338 29 126 233 22 63 30 21 20 41 61 20 28 29
internal_value=0 -0.00655794 -0.0246483 0.216804 0.174095 0.221614 0.420184 0.129749 -0.0774882 0.277595 0.62021 -0.0283937 0.0669452 -0.0379041 -0.0236698 -0.0430056 -0.0641507 0.0879756 0.063976 0.10392 0.184181 0.325427 0.739128 2.12074 -0.109814 -0.499957 0.00312446 0.324219 -0.296323 -0.0946659
internal_weight=0 6193 5729 464 431 411 130 281 117 164 83 5690 47 5257 4382 3590 3091 499 792 694 461 306 134 51 83 61 172 83 89 155
internal_count=6217 6193 5729 464 431 411 130 281 117 164 83 5690 47 5257 4382 3590 3091 499 792 694 461 306 134 51 83 61 172 83 89 155
is_linear=0
shrinkage=0.1


Tree=32
num_leaves=31
num_cat=0
split_feature=6 8 7 7 0 8 6 8 6 4 5 0 1 2 9 7 1 9 9 6 0 0 1 0 6 0 6 0 1 8
split_gain=5744.87 2340.23 2686.75 1347.12 1236.48 2203.47 1853.4 700.271 683.73 1217.79 1162.3 625.731 583.636 516.643 594.264 478.333 495.338 387.173 646.852 933.439 602.897 1916.75 13094.1 20924.5 2493.91 1341.59 2148.53 1121.64 2354.64 628.804
threshold=221.50000000000003 66.928571428571445 31.500000000000004 196.50000000000003 11.973455518484117 96.642857142857153 138.00000000000003 19.357142857142858 41.500000000000007 14.400000000000002 0.35000000000000003 11.969808362315867 57.699199795722969 20.250000000000004 1.0000000180025095e-35 108.50000000000001 57.703690761990025 5.5000000000000009 3.5000000000000004 1.0000000180025095e-35 11.989405308450973 11.969647124161815 57.697017859930952 11.978721406724722 1.0000000180025095e-35 11.957193421979325 1.0000000180025095e-35 11.949981306728565 57.716548919677741 4.6428571428571432
decision_type=2 2 2 2 2 2 2 2 2 2 2 2 2 2 2 2 2 2 2 2 2 2 2 2 2 2 2 2 2 2
left_child=1 7 -3 4 6 -6 11 8 17 -10 12 15 -11 -9 -15 16 -4 18 19 -1 21 25 24 -24 -23 27 -27 29 -29 -20
right_child=-2 2 3 -5 5 -7 -8 13 9 10 -12 -13 -14 14 -16 -17 -18 -19 20 -21 -22 22 23 -25 -26 26 -28 28 -30 -31
leaf_value=-0.6139790211121241 1.6511842829130945 1.4067032420635224 0.072196198187091137 -0.52779065007748815 -0.078191139632835985 1.2961045048066548 -0.75573190569877635 -0.05814303096953282 0.65054934650659568 -0.13635770649864123 -0.57596056828132036 -0.18893661859134836 0.48912488545690264 -0.10476971196324135 0.12756141317472047 0.6741857950886091 0.63363631963729861 -0.10700990702669594 -0.087172521913872814 -0.052765204612861799 -0.067710922089763259 -0.98473283812917511 4.1407160651116142 0.12595028068103337 0.053887989545208327 -0.94475789583391612 -0.054737342990596183 1.3592846506834031 -0.0081451428711743056 0.12480676029841382
leaf_weight=30 21 20 55 23 20 28 20 314 40 26 26 24 35 130 719 36 22 752 274 2447 471 29 21 34 114 36 110 20 34 286
leaf_count=30 21 20 55 23 20 28 20 314 40 26 26 24 35 130 719 36 22 752 274 2447 471 29 21 34 114 36 110 20 34 286
internal_value=0 -0.00559633 0.29538 0.197896 0.279314 0.723481 0.143518 -0.0181455 -0.0350614 0.193867 -0.0161023 0.274796 0.222526 0.0514529 0.0919866 0.373287 0.232608 -0.0413031 -0.028653 -0.0595623 0.0249246 0.0704688 0.347593 1.65886 -0.156741 -0.00172917 -0.274194 0.063059 0.49831 0.0210883
internal_weight=0 6196 248 228 205 48 157 5948 4785 127 87 137 61 1163 849 113 77 4658 3906 2477 1429 958 198 55 143 760 146 614 54 560
internal_count=6217 6196 248 228 205 48 157 5948 4785 127 87 137 61 1163 849 113 77 4658 3906 2477 1429 958 198 55 143 760 146 614 54 560
is_linear=0
shrinkage=0.1


Tree=33
num_leaves=31
num_cat=0
split_feature=7 8 6 8 6 6 5 0 9 0 2 1 8 0 2 2 9 9 6 0 0 0 0 0 8 1 1 1 0 0
split_gain=5159.14 1503.49 2921.99 2261.83 1511.93 960.933 794.467 612.552 491.789 633.433 1015.49 1312.78 959.927 665.481 610.656 751.965 422.728 704.665 775.776 663.481 1778.04 10037.6 1883.91 935.929 653.328 597.823 1072.42 697.817 800.318 595.678
threshold=218.00000000000003 28.214285714285719 165.00000000000003 106.64285714285715 107.50000000000001 108.50000000000001 3.855 12.000545019195195 1.0000000180025095e-35 11.973088242790919 22.850000000000005 57.701675784203324 52.928571428571438 11.978073740611755 21.850000000000005 17.850000000000005 5.5000000000000009 3.5000000000000004 1.0000000180025095e-35 11.987567075093589 11.97278169860113 11.975427636820354 11.970705111821493 11.968657225370409 9.7857142857142865 57.701302513709443 57.706942190787231 57.693367363059011 11.942820334434511 11.985858511924745
decision_type=2 2 2 2 2 2 2 2 2 2 2 2 2 2 2 2 2 2 2 2 2 2 2 2 2 2 2 2 2 2
left_child=1 4 3 6 16 -5 7 8 -3 10 14 12 -12 -11 15 -10 17 18 -1 20 22 -22 23 24 25 27 -27 -19 -29 -23
right_child=-2 2 -4 5 -6 -7 -8 -9 9 13 11 -13 -14 -15 -16 -17 -18 19 -20 -21 21 29 -24 -25 -26 26 -28 28 -30 -31
leaf_value=-0.55258112321297326 1.5647478625887918 -0.11306830062530936 -0.85004503528277076 0.30540548205375673 0.63991505497628287 1.0766793575457165 -0.28357573411598497 0.66489291020802099 -0.27206518007763503 -0.44626795404723718 0.49623524926362506 -0.017628407699090461 1.384839607477188 0.077992769638752804 -0.16310724095889817 0.26896984324521489 -0.092292066154892771 -0.0083376339330644058 -0.041329257203374409 -0.053068057614737353 2.3183423990788667 0.016574123234992535 -0.81600979369563553 0.66368596799050772 0.16043370227782749 -0.62478690274059778 -0.055356162846367567 0.092246174045971463 0.88522845804691319 0.59898748185485606
leaf_weight=30 21 82 30 30 34 35 49 21 29 28 31 27 20 179 54 225 882 286 2784 553 23 144 26 24 264 40 191 35 20 20
leaf_count=30 21 82 30 30 34 35 49 21 29 28 31 27 20 179 54 225 882 286 2784 553 23 144 26 24 264 40 191 35 20 20
internal_value=0 -0.00530337 0.119084 0.154977 -0.0248114 0.720707 0.105619 0.133019 0.116471 0.148212 0.223898 0.546207 0.844708 0.00707828 0.142274 0.207198 -0.0290581 -0.0164968 -0.0467797 0.0359117 0.0817699 0.36197 0.0226307 0.047985 0.0303093 -0.029748 -0.153959 0.0543948 0.380603 0.0876001
internal_weight=0 6196 840 810 5356 65 745 696 675 593 386 78 51 207 308 254 5322 4440 2814 1626 1073 187 886 860 836 572 231 341 55 164
internal_count=6217 6196 840 810 5356 65 745 696 675 593 386 78 51 207 308 254 5322 4440 2814 1626 1073 187 886 860 836 572 231 341 55 164
is_linear=0
shrinkage=0.1


Tree=34
num_leaves=31
num_cat=0
split_feature=8 6 7 6 5 1 0 0 2 2 6 0 0 3 7 0 2 6 0 6 2 6 1 1 1 2 1 0 7 1
split_gain=4718.2 1384.2 1095.99 1075.69 562.433 1069.37 875.904 638.596 692.489 631.863 501.13 489.614 487.801 489.834 662.74 459.488 646.405 1572.98 618.83 608.868 2517.8 847.641 408.62 1769.25 777.818 666.032 562.514 949.064 974.626 1469.65
threshold=188.21428571428575 180.00000000000003 41.500000000000007 143.50000000000003 0.94000000000000006 57.703690761990025 11.968976817411535 11.973893994302083 21.850000000000005 20.250000000000004 63.500000000000007 11.950875776785393 11.980811431191187 28.600000000000005 99.500000000000014 11.945289664798315 24.350000000000005 24.500000000000004 11.958327180689034 94.500000000000014 21.200000000000003 76.500000000000014 57.702280521392829 57.701675784203324 57.70278453826905 20.250000000000004 57.686815871132758 11.995065093040468 1.0000000180025095e-35 57.695882283724281
decision_type=2 2 2 2 2 2 2 2 2 2 2 2 2 2 2 2 2 2 2 2 2 2 2 2 2 2 2 2 2 2
left_child=1 2 15 4 5 11 9 8 -7 -6 -8 -4 13 14 -13 -1 19 18 -18 21 -21 22 23 26 25 -24 -17 28 29 -28
right_child=-2 -3 3 -5 6 7 10 -9 -10 -11 -12 12 -14 -15 -16 16 17 -19 -20 20 -22 -23 24 -25 -26 -27 27 -29 -30 -31
leaf_value=-0.06396374308304402 1.3994020894169807 0.65056916577741508 -0.23577399940695615 -0.57415436089038852 -0.098373395973636257 0.71929684350123768 0.0035020189625876289 0.877442231949638 0.029233851757916537 0.5099902356925764 -0.59478707845721934 0.2476195783717785 -0.14383721692221504 -0.056039163294960476 0.85504846987516991 -0.068192647951317228 0.48366669060722478 0.99172911558832455 -0.0074082823507737794 0.34829742745919662 -1.2019788825511935 0.53148831560693943 -0.86026458733138578 0.68851048694207118 -0.0332245444378668 -0.13087658439913105 0.062998768370165381 -0.19192279277873847 0.014354626159350944 0.49529080447109958
leaf_weight=1711 24 32 32 20 31 26 28 34 33 38 28 82 35 34 23 634 31 21 149 22 20 29 21 39 1830 31 215 144 696 124
leaf_count=1711 24 32 32 20 31 26 28 34 33 38 28 82 35 34 23 634 31 21 149 22 20 29 21 39 1830 31 215 144 696 124
internal_value=0 -0.00542316 -0.00883036 0.142516 0.176321 0.250789 -0.00180742 0.532252 0.333329 0.236667 -0.295643 0.123721 0.189835 0.273853 0.380675 -0.0205844 -0.00205663 0.172717 0.0771657 -0.0112891 -0.389929 -0.00706298 -0.0112456 0.0221018 -0.0440614 -0.425437 0.00776646 0.048613 0.0820789 0.221123
internal_weight=0 6193 6161 444 424 299 125 93 59 69 56 206 174 139 105 5717 4006 201 180 3805 42 3763 3734 1852 1882 52 1813 1179 1035 339
internal_count=6217 6193 6161 444 424 299 125 93 59 69 56 206 174 139 105 5717 4006 201 180 3805 42 3763 3734 1852 1882 52 1813 1179 1035 339
is_linear=0
shrinkage=0.1


Tree=35
num_leaves=31
num_cat=0
split_feature=6 7 8 9 7 5 0 9 2 6 2 6 0 6 6 8 6 1 1 1 0 0 0 2 0 1 1 1 6 0
split_gain=4023.08 1561.56 3057.71 2463.1 947.169 507.755 544.901 439.031 676.363 1624.74 832.093 2127.36 1246.82 2139.52 1278.1 1054.08 1010.31 631.777 867.38 581.349 757.818 10523.2 1851.25 1891.8 1051.3 3017.44 609.662 1447.12 2481.87 670.367
threshold=210.50000000000003 196.50000000000003 122.28571428571429 2.5000000000000004 41.500000000000007 3.855 11.95554304122925 5.5000000000000009 17.850000000000005 63.500000000000007 23.500000000000004 59.500000000000007 11.984238972341208 44.500000000000007 19.500000000000004 2.9285714285714293 8.5000000000000018 57.703253135002662 57.697753542945506 57.684540748596206 11.969647124161815 11.975427636820354 11.958980148488827 17.200000000000006 11.948031369377587 57.70213240985391 57.698302110036217 57.70513736500461 2.5000000000000004 12.004921369199401
decision_type=2 2 2 2 2 2 2 2 2 2 2 2 2 2 2 2 2 2 2 2 2 2 2 2 2 2 2 2 2 2
left_child=1 2 4 -4 7 6 -6 8 9 19 11 15 13 16 -14 -10 -12 18 -18 -1 22 -22 24 -24 -21 -26 -23 28 -28 -29
right_child=-2 -3 3 -5 5 -7 -8 -9 10 -11 12 -13 14 -15 -16 -17 17 -19 -20 20 21 26 23 -25 25 -27 27 29 -30 -31
leaf_value=-0.17398598086164924 1.2180136835133588 -0.84631115198135376 0.15725800371170046 1.6461476913094524 -0.027027618388334913 -0.27881612027132952 0.24386228669687232 -0.079518350900155577 -0.14049430212825739 0.92515388158234679 -0.015551596613696371 -1.0449455874306817 -0.027187921331230422 1.0402887220893589 -0.87338046833872807 -0.005600570635302303 0.27449461179785434 -0.046554121933877472 0.91449143797159194 -0.013867172976689679 1.9186651088297368 0.24666067054377327 -0.078965849777062738 -1.1504200325562406 1.0965815922192166 -0.19034739273943402 -1.4126975372433663 0.28683062222962447 0.035319465193255198 -0.11746637023499479
leaf_weight=98 27 22 25 20 102 27 273 985 743 22 195 21 166 28 20 2629 72 32 30 210 32 79 45 26 35 38 20 74 29 92
leaf_count=98 27 22 25 20 102 27 273 985 743 22 195 21 166 28 20 2629 72 32 30 210 32 79 45 26 35 38 20 74 29 92
internal_value=0 -0.00531282 -0.00231315 0.818987 -0.00834916 0.140024 0.17018 -0.0187749 -0.00614145 0.0776822 -0.0231788 -0.0415724 0.0917557 0.201132 -0.118176 -0.0353236 0.129714 0.341109 0.462729 0.0537177 0.0865338 0.196541 -0.0147721 -0.471329 0.0997705 0.426673 0.00909887 -0.0781913 -0.555708 0.0627624
internal_weight=0 6190 6168 45 6123 402 375 5721 4736 800 3936 3393 543 357 186 3372 329 134 102 778 680 326 354 71 283 73 294 215 49 166
internal_count=6217 6190 6168 45 6123 402 375 5721 4736 800 3936 3393 543 357 186 3372 329 134 102 778 680 326 354 71 283 73 294 215 49 166
is_linear=0
shrinkage=0.1


Tree=36
num_leaves=31
num_cat=0
split_feature=7 6 8 9 1 7 5 6 8 8 1 1 3 6 1 4 4 0 2 6 0 1 1 1 1 0 6 1 4 8
split_gain=3962.06 1203.68 2789.69 5242.1 1083.74 591.3 380.515 375.133 616.105 573.376 380.511 806.543 370.62 618.495 367.844 411.351 416.931 329.447 458.578 1129.13 495.542 337.455 3387.94 759.149 1033.88 6884.67 723.136 523.995 498.437 471.598
threshold=218.00000000000003 192.50000000000003 107.92857142857143 3.5000000000000004 57.704225576012995 41.500000000000007 3.855 60.500000000000007 53.785714285714292 59.071428571428577 57.706772148609168 57.701118503298083 28.600000000000005 74.500000000000014 57.694394658062919 16.500000000000004 15.850000000000003 11.945289664798315 24.350000000000005 24.500000000000004 11.958327180689034 57.702280521392829 57.70188756639579 57.701302513709443 57.700101808359932 11.980811431191187 48.500000000000007 57.702583357004023 14.650000000000002 13.357142857142859
decision_type=2 2 2 2 2 2 2 2 2 2 2 2 2 2 2 2 2 2 2 2 2 2 2 2 2 2 2 2 2 2
left_child=1 2 5 4 -4 17 7 9 -9 14 11 12 13 -10 -7 16 -16 -1 21 20 -20 22 23 24 29 -26 27 -23 -28 -19
right_child=-2 -3 3 -5 -6 6 -8 8 10 -11 -12 -13 -14 -15 15 -17 -18 18 19 -21 -22 26 -24 -25 25 -27 28 -29 -30 -31
leaf_value=-0.053693376988861632 1.371249008178711 -0.67087993930887302 -0.47766976519064469 1.9045396262949166 0.48467348670959476 -0.14139504336258943 -0.25093451015375279 -0.47019806693900712 -0.2893624715152241 0.60829363663991298 -0.27703786980022088 0.66455600857734687 -0.33697403215226673 0.38082057833671573 0.19318133407071525 0.019222959193090597 0.65820290513877433 -0.039197915039802855 0.42874128669500355 0.83984302594548188 -0.010701500194384747 -0.44194274989267196 1.2271784041238869 -0.4195008549748398 1.8379188405430835 -0.17117713346625821 0.0077110431411049583 -0.020582805060484745 -0.58488595768809315 0.070408454081525587
leaf_weight=1711 21 27 22 22 25 34 27 22 21 33 22 26 21 40 51 57 31 1139 31 21 149 30 23 41 23 66 22 1820 40 599
leaf_count=1711 21 27 22 22 25 34 27 22 21 33 22 26 21 40 51 57 31 1139 31 21 149 30 23 41 23 66 22 1820 40 599
internal_value=0 -0.00464755 -0.00173164 0.63055 0.0342149 -0.00888368 0.111071 0.138373 0.0192041 0.226303 0.102026 0.179243 0.0253629 0.150102 0.153438 0.225556 0.368982 -0.0169646 -0.00126957 0.145936 0.0649803 -0.00904984 0.0209034 0.00605093 0.0156008 0.348027 -0.038674 -0.0274157 -0.37461 -0.00142219
internal_weight=0 6196 6169 69 47 6100 385 358 152 206 130 108 82 61 173 139 82 5715 4004 201 180 3803 1891 1868 1827 89 1912 1850 62 1738
internal_count=6217 6196 6169 69 47 6100 385 358 152 206 130 108 82 61 173 139 82 5715 4004 201 180 3803 1891 1868 1827 89 1912 1850 62 1738
is_linear=0
shrinkage=0.1


Tree=37
num_leaves=31
num_cat=0
split_feature=6 8 4 8 0 7 2 2 9 9 0 0 1 6 6 0 8 6 6 6 8 0 1 8 6 1 6 2 6 7
